127 128
11 0.19383715 0.09161345 -0.12973873 -0.031365573 -0.097477004 -0.25594327 0.06966923 0.12378602 0.17432815 0.016449148 -0.01877237 0.016035063 0.04467985 -0.10653259 0.10136838 -0.106512055 -0.02570671 0.0748171 -0.028617835 0.08074064 -0.13474143 -0.060540915 -0.16388252 -0.019236622 -0.019003723 0.0011064794 -0.0052797534 -0.036904708 -0.07116799 -0.09781215 0.12104415 -0.05063362 0.14658113 -0.016502004 0.09033646 -0.020013645 -0.0541285 -0.0484275 0.13332447 -0.035303276 -0.0010696755 0.13765743 0.20748624 0.055871986 0.075420834 0.10604342 -0.21818951 -0.14633928 0.17604496 0.04539644 -0.031876463 0.26972196 -0.20756017 -0.09134837 0.12540343 -0.03284532 0.03474353 -0.06529947 0.024678115 0.114074156 -0.0715765 0.02514855 -0.24936168 0.102391146 0.11392067 0.124876186 0.11936373 -0.17140594 -0.11259345 -0.18615416 0.054965805 0.35362822 0.12637374 0.08333529 -0.14770032 0.077312246 0.19002037 -0.036538605 0.0010997177 0.034392085 -0.024249598 0.0061939512 0.060075067 -0.06374343 -0.0636529 0.039255947 -0.10663794 0.0898944 0.104903355 -0.08236856 0.05417545 -0.017686909 -0.1943302 0.0869116 0.068274885 -0.15934886 -0.1922757 -0.0045033284 0.06876789 -0.08023005 0.011205764 0.094914295 -0.006840399 -0.046227336 -0.047272544 -0.104927704 0.05021269 -0.05971021 0.040797267 0.09988344 0.10695086 0.1333093 -0.053591784 -0.0589778 -0.059889853 0.009760408 -0.0012612904 0.011819732 -0.15653057 0.077634506 -0.052189693 0.056180757 -0.048899256 0.014214653 -0.051891603 0.08813447 -0.11283344 -0.08989052
0 0.14099851 0.074247 -0.15018937 0.020198442 -0.12389924 -0.1709697 -0.083720535 0.10847819 0.19661763 -0.103219844 -0.010730754 0.006779778 0.10888674 -0.15616782 0.09029886 -0.013561109 0.124433674 0.09459134 -0.026621101 0.06719759 -0.024851475 -0.043417357 -0.14485772 0.023959776 -0.047157846 0.027800983 -0.11703632 0.05215126 0.0087769395 -0.027889425 0.17532966 0.12441992 0.17626421 -0.04677883 0.08461141 -0.018806525 -0.037750673 0.019584253 0.17875378 -0.08632206 0.050123926 0.10486975 0.20387506 -0.038120236 0.009100125 0.089862004 -0.10263156 -0.038482938 0.19035223 -0.040103924 -0.06492576 0.19296499 -0.17367117 -0.1554116 0.096972026 0.06712786 0.17158112 -0.0052807736 -0.021962898 0.08530945 -0.044902794 -0.07654782 -0.21122886 0.15954927 0.18600807 0.08879639 0.18209344 -0.22487015 -0.086356066 -0.10927361 0.05691175 0.26776043 0.24632944 -0.043267682 -0.017767116 0.061837092 0.2278917 -0.075489886 -0.01703545 -0.044592112 -0.15731366 0.14106217 0.04265111 0.055374697 -0.058517918 0.030327432 0.013288944 0.09101952 0.0046241335 -0.18407404 0.08078815 -0.05103642 -0.011806676 0.17210568 0.020901537 -0.21299575 -0.020727877 -0.04768921 0.18821925 -0.095754914 -0.12115995 0.0971995 0.050011378 0.13434404 -0.08022851 -0.075762585 -0.020769022 -0.0625065 -0.029293615 -0.053184964 0.07975447 0.12112649 0.06855035 0.005688531 -0.11088058 0.111461855 0.10681449 -0.039855123 -0.079018064 0.13119784 0.04518791 0.018058145 0.076766744 0.055970162 0.08085966 0.059405167 -0.34398004 -0.19851916
52 0.17760633 0.0014140473 -0.08534742 0.027505666 -0.115669504 -0.1929364 0.055232733 0.1446678 0.195468 -0.035360083 0.01145949 0.051671445 -0.033601083 -0.031176455 0.042287115 -0.07860478 -0.12197681 0.043077394 -0.003353155 0.0062087914 -0.20881383 -0.04189062 -0.20232292 -0.0982764 -0.13111317 -0.008833951 0.013532982 0.027453486 -0.11938373 -0.13123386 0.128708 -0.08975362 0.08391134 -0.022269854 0.15817253 -0.03751777 -0.05288816 -0.05633991 0.20031452 -0.039881036 -0.054638278 0.18450442 0.1561223 -0.055703156 0.0011146367 0.03622149 -0.24683315 -0.16122 0.18632004 -0.043502152 -0.03232609 0.25182372 -0.011411619 -0.025307916 0.10968793 0.019325875 0.07819738 0.033592623 0.0113049075 0.12196889 -0.01685535 -0.043579645 -0.16719802 0.023213664 0.117916875 0.044098493 0.21538512 -0.18270274 -0.10654076 -0.15691507 0.11071893 0.38879386 -0.05992258 -0.033879016 -0.07201571 0.0126223955 0.05691756 -0.037921015 0.053882297 0.0668275 0.02658602 0.091366835 0.023726715 -0.039856173 -0.012508752 0.033672124 -0.18722227 0.028239831 0.02451492 -0.1861858 0.0537592 -0.055675965 -0.12729709 0.060988426 0.08344256 -0.0071786926 -0.015059886 0.08259387 0.060711302 0.08055215 -0.043205988 0.083769046 0.09210774 0.13884299 -0.063347876 -0.21595299 -0.062328387 -0.1538712 -0.06203321 0.17713958 0.08021231 0.28724656 0.06524409 -0.065597184 -0.17343844 0.02787072 0.13157766 0.055800397 -0.0753237 -0.024569703 -0.105448715 0.096931085 -0.042678196 0.10106845 0.01404876 0.057179652 -0.18624303 -0.09428239
7 0.23182182 0.009209407 -0.061507385 0.020018978 -0.10821381 -0.32765326 -0.026914516 0.15040754 0.18244176 0.05494724 -0.050742276 -0.012570914 0.07669435 -0.06685962 0.13954961 -0.03001233 -0.09306816 0.11124584 -0.10101754 0.08459447 -0.071053855 0.025845332 -0.2200813 0.05947872 0.035881493 -0.019596353 -0.078328416 0.00047338527 -0.023978055 -0.020978106 0.124587394 0.005960917 0.18132555 -0.020904878 0.03466892 -0.018813003 -0.035223585 -0.03779601 0.069660485 -0.065229654 -0.00862455 0.015949791 0.17544033 0.030058332 0.055547692 0.121125944 -0.21362893 -0.03401448 0.08435553 -0.0036810066 -0.06242516 0.2556298 -0.1852092 -0.06959367 0.115079746 0.057792597 0.14127998 -0.04904164 0.018228779 0.055249643 0.0090301195 0.04679854 -0.2599675 0.19164698 0.09135556 0.089017 0.09572061 -0.19566087 -0.032849964 -0.2225439 0.12234313 0.25606123 0.2162527 0.040615767 -0.086402304 0.06189961 0.19292215 -0.07888313 0.029789845 -0.058698006 0.03027212 0.024063574 -0.024190687 0.010324362 -0.031167293 0.06350788 -0.081237525 0.060791932 0.116614446 -0.060599748 0.026451062 0.016510453 -0.11173003 0.18803288 -0.016026786 -0.06535824 -0.10277249 0.06923218 0.04578583 -0.114597715 -0.036534004 0.09664167 0.06539284 0.08126345 -0.042945582 -0.09267197 0.08406559 -0.05538698 0.055272453 0.10249622 0.1978253 0.06591823 0.007370113 -0.14203694 -0.013839678 0.004221434 0.11476038 -0.0035740724 -0.13418669 0.03704131 -0.054159917 0.046761777 0.049132533 0.05118233 -0.019586649 0.07247971 -0.24751699 -0.05375353
24 0.25975344 0.08718144 0.03416123 -0.015971592 -0.15218785 -0.19529232 0.0052489405 0.181801 0.06332505 0.13786174 0.06597764 -0.033637077 0.084348656 -0.066725254 0.21118899 -0.05227275 -0.045899525 0.096897945 -0.1192584 0.14572155 -0.07412354 0.13446124 -0.18738122 0.09952451 0.0641501 0.19429785 0.061455585 0.05039372 -0.07898173 0.0082194 0.052029345 0.12622002 0.3050173 0.0325497 0.08320101 0.12633866 -0.16133715 0.09718584 0.0833042 -0.03913286 -0.016126586 0.04729442 0.23815738 -0.044271853 0.034474764 0.08818119 -0.116879165 -0.12194579 0.11824935 0.07321803 -0.19331115 0.21102443 -0.15049091 -0.14270997 -0.0045709186 -0.08952561 0.024398796 -0.17801645 0.031238807 0.053111676 -0.012192897 -0.13280106 -0.30066583 0.187632 0.16892146 0.12145622 0.143703 -0.20233881 -0.04922292 -0.17655517 0.14271434 0.18339255 0.30220887 0.09053555 -0.08362167 -0.016100468 0.216949 -0.024868663 -0.10748712 -0.059756666 0.12224911 0.08833254 -0.0371668 -0.08113369 -0.020994969 0.1738996 -0.1286179 0.09054903 0.19165857 -0.02751976 0.055134937 0.0033882656 -0.11014728 0.13497141 -0.035215415 -0.017933656 0.29341933 -0.020602796 0.12286708 -0.16261587 -0.24217166 0.1300753 -0.1190713 0.21501541 0.044613868 0.10691184 -0.07589473 -0.080730006 -0.22808082 -0.08957294 0.077760756 -0.0526798 0.07936228 -0.05715401 0.009813024 0.099881664 0.29943323 -0.022435917 0.11642534 -0.014756926 0.048547838 0.128475 0.12986253 0.028518144 0.08064267 -0.08046 -0.37335932 0.057925843
294 0.37575558 0.079505004 0.07050017 0.08624568 -0.04456842 -0.23710747 0.08159268 0.11331617 0.0721364 0.06197471 -0.054616813 -0.14590037 0.1180083 -0.10328618 0.20865938 -0.043822046 -0.09373631 0.16842574 -0.05805341 0.050503068 -0.062486373 0.10985829 -0.2701494 -0.014472912 0.16777384 0.068696156 -0.002559639 -0.0871331 -0.10563104 0.08124806 0.007238398 0.08006396 0.13113692 0.02395169 0.08901805 -0.029679148 -0.22171347 -0.011365277 0.009829307 -0.098793715 -0.0038420055 -0.103965074 0.17249982 -0.0736562 0.043982882 0.025951572 -0.157177 0.012182298 0.03193139 -0.0065574674 -0.032750305 0.17395948 -0.2120911 -0.032219805 0.014062225 0.025973858 -0.00879993 -0.09359043 0.07011379 0.015950756 -0.038417034 0.027124945 -0.24226213 0.2441392 0.17315798 0.069296576 0.08605762 -0.15945853 0.032278456 -0.2080975 0.14086723 0.15811032 0.3290808 0.11188137 -0.12382282 -0.09866224 0.046195153 -0.092979215 -0.07553878 -0.09044585 0.12645856 -0.017563513 -0.22625895 -0.007842875 -0.10068826 0.1469733 -0.15228479 0.15754698 0.21680051 -0.025625924 0.011294613 0.014660822 -0.110077694 0.09046957 0.09909761 -0.1420267 -0.031174112 0.27065226 0.09164138 -0.10076595 -0.12576748 0.06191904 -0.024131576 0.1545321 -0.037807368 -0.008446888 0.15625887 -0.16304812 -0.011220297 0.10425465 0.20708813 0.07888504 0.01990194 -0.19038033 -0.040106803 -0.07856984 0.33811826 0.0056550126 -0.2673545 0.035087287 -0.0015560596 0.14929809 0.07439997 -0.05223699 0.0843044 0.0037233285 -0.380609 0.12616406
158 0.21368931 0.025508825 0.003002908 0.051661137 -0.049185496 -0.29574755 -0.016341422 0.12846859 0.12315658 0.08629283 -0.11919849 -0.07054658 0.07348099 -0.11830335 0.18218036 -0.029350923 -0.069850214 0.060852256 -0.047079045 0.058689598 -0.04617734 0.06303845 -0.21944271 0.062283322 0.06541977 -0.04737579 -0.09309396 -0.049215868 -0.04897224 0.001760936 0.07260566 0.017510077 0.1244332 -0.029444687 0.021991719 0.002224837 -0.116409875 -0.06993059 0.017960059 -0.04668273 -0.00837355 -0.076135136 0.11695379 0.067367144 0.08383156 0.15332043 -0.17629968 0.003972255 0.037629005 0.0036241869 -0.016609298 0.22867307 -0.20163755 -0.05517782 0.1374264 0.044807896 0.06211321 -0.06126603 0.022047207 0.03970087 -0.0012740531 0.01290025 -0.20269832 0.19422756 0.10589753 0.07798605 0.106779166 -0.16875456 -0.0042692996 -0.2194209 0.12892254 0.2011979 0.28352273 0.06958957 -0.10048266 0.086184055 0.15662038 -0.11476855 0.024097076 -0.08997771 0.040372536 0.0353086 -0.018971313 -0.0063182865 -0.05022873 0.11962758 -0.10391052 0.095819764 0.19478679 -0.037482973 0.012705454 0.04402266 -0.17211814 0.16219008 -0.016540544 -0.09938203 -0.12811147 0.16987787 0.11420953 -0.19013962 -0.060672726 0.14781657 -0.0013229178 0.08248392 -0.09819072 -0.0883897 0.13056718 -0.1104932 0.07707269 0.1105592 0.21887329 0.05966638 -0.009720904 -0.20600753 -0.048277903 -0.031646263 0.25681275 0.009774351 -0.18192685 0.068582654 -0.094589636 0.05559498 0.045606054 0.005126654 0.02400446 0.0703029 -0.3660491 0.007216916
2 0.21098033 0.07092325 -0.085539974 0.0033697416 -0.08636386 -0.23585609 -0.02722048 0.10917973 0.12690343 0.020871848 0.022609832 -0.030461473 0.12531072 -0.09978228 0.13364598 -0.034989502 0.03168339 0.10736558 -0.0787721 0.12113631 -0.032679144 0.02524887 -0.1263325 0.054960504 0.083469436 0.0800671 -0.029439745 -0.01856421 -0.012057104 0.009122057 0.11535437 0.046585094 0.22515385 -0.01694442 0.05117663 0.004554176 -0.05456603 0.038569253 0.06328816 -0.07264643 0.012682369 0.044988114 0.2315405 0.010210202 0.019001417 0.10670691 -0.110561185 -0.047148135 0.123048395 0.050368287 -0.08797789 0.22151124 -0.2085894 -0.11739961 0.03139643 -0.02512264 0.07195847 -0.077988066 0.02651068 0.054784857 -0.05540791 0.016347105 -0.27216643 0.18567622 0.14161715 0.12328884 0.10024249 -0.18998678 -0.035780072 -0.15069064 0.06711594 0.19434883 0.2506916 0.08363139 -0.0812017 0.045079697 0.23280527 -0.031109203 -0.043264084 -0.049863543 -0.009953335 0.03412257 -0.030329956 -0.01395344 -0.07908024 0.045971572 -0.034616444 0.10982433 0.100981705 -0.039632514 0.037038907 -0.029413305 -0.08230647 0.12313191 0.029955309 -0.16018671 -0.0071149333 0.008100488 0.13911502 -0.1621328 -0.15291132 0.1313875 -0.0046411017 0.11576402 -0.012829892 -0.0019789587 0.04026158 -0.083089024 -0.05386501 -0.0012779164 0.15900034 0.056492817 0.0061636213 -0.09483516 -0.015606473 0.043969605 0.14616042 -0.045181468 -0.115300514 0.10025027 0.019576283 0.11344875 0.11008261 0.0011981258 0.055149175 0.019293884 -0.3544032 -0.054303613
199 0.16464415 0.08723986 -0.12608437 0.0112306755 -0.07526656 -0.18574706 -0.010905554 0.078040026 0.17445287 -0.06336897 -0.019450767 -0.025753967 0.05647684 -0.10407806 0.07926972 -0.0050504296 0.02537594 0.112364784 -0.033104245 0.058005847 -0.06617401 -0.059050787 -0.15457341 -0.030585112 -0.0010822602 0.015153358 -0.107071236 0.024728278 -0.02996568 -0.0337004 0.12071645 0.06793538 0.13752042 -0.02977747 0.11269536 -0.0746856 -0.032477714 -0.022657674 0.13490482 -0.10436108 0.06642017 0.071220145 0.21660715 -0.024660638 0.018165965 0.039192986 -0.16050577 -0.066151224 0.1820713 -0.036032576 -0.036613736 0.18529828 -0.20911768 -0.10572193 0.10332503 0.08533737 0.15981683 0.019719461 -0.00020033588 0.09491794 -0.03858202 0.004913936 -0.23543182 0.122689396 0.13774882 0.099491924 0.094494514 -0.17356715 -0.068492375 -0.15503491 0.06825033 0.27821693 0.21950705 0.017435128 -0.10031291 0.01891198 0.17676517 -0.068797305 -0.044684164 -0.0032358326 -0.110776775 0.012046063 -0.015244993 0.04689637 -0.07863679 0.03118596 -0.007322535 0.09483664 -0.004766713 -0.13750659 0.051761463 -0.03257034 -0.009793229 0.14427319 0.054821968 -0.1874963 -0.07029151 0.02201648 0.13922547 -0.06993499 -0.07869163 0.07762572 0.0519155 0.11274956 -0.049029812 -0.13187267 0.060033903 -0.046530724 0.0054019736 0.036425117 0.120097265 0.13682087 0.033590414 -0.049340528 -0.1054247 0.05792512 0.10800381 -0.042479955 -0.19754718 0.09259791 0.037037954 0.09827714 0.051381547 0.070644006 0.0045406627 0.114330865 -0.31264982 -0.16282965
61 0.15225399 0.033192087 -0.008126441 0.012309423 -0.072815254 -0.35889727 -0.003833672 0.13637318 0.134858 0.18270057 -0.11345333 -0.033141892 0.004221729 -0.048301015 0.16452168 -0.018062893 -0.16401286 0.03465096 -0.07662271 0.07506499 -0.078190185 0.030532071 -0.17561501 0.10610333 0.0591618 -0.07107993 -0.11303606 -0.04035138 -0.06367185 -0.03736544 0.062154774 -0.04923436 0.13345589 -0.041162904 0.002744699 0.024997655 -0.052955586 -0.10630101 -0.02933828 -0.031582013 -0.029245486 -0.04601503 0.11052899 0.15783998 0.13250446 0.19955805 -0.24015887 -0.064039506 0.056342404 0.042293027 -0.041792538 0.26213497 -0.21619003 -0.054531135 0.18752629 0.045772355 0.0883078 -0.067070745 0.0027513239 0.06849762 0.012929238 0.04134804 -0.26595005 0.15190938 0.016356645 0.13114825 0.029793393 -0.14022101 -0.010887629 -0.31782413 0.14315335 0.24575113 0.23457204 0.103643365 -0.14504926 0.15547948 0.24952285 -0.10808547 0.049963046 -0.081004865 0.0743395 -0.029126804 0.05370933 -0.02973704 -0.00055617467 0.14028582 -0.10384386 0.05211966 0.20405182 0.015104245 0.0018305131 0.08941409 -0.21571071 0.17034289 -0.09634547 -0.018156521 -0.13200225 0.14382131 0.09657851 -0.3001979 -0.058368605 0.22163403 -0.048443496 0.10748712 -0.04833507 -0.15331079 0.1638719 -0.075657845 0.088505514 0.16801482 0.30178136 0.043737195 -0.028119517 -0.27638078 -0.041235577 -0.014477732 0.2822693 0.017293766 -0.18955153 0.0125203235 -0.13335912 0.10427713 0.052863114 0.058596496 -0.060536727 0.1346126 -0.40957502 -0.01121014
18 0.2110614 -0.081240945 -0.07053839 0.09151688 -0.13981853 -0.20299591 -0.00898026 0.18012471 0.25521687 -0.06193654 0.06602999 0.055523276 -0.046850067 0.05097667 0.047883987 -0.0069835847 -0.28180113 0.08023084 -0.07019964 -0.009825538 -0.23177247 -0.014796286 -0.24876419 -0.09682214 -0.14799568 0.05073032 -0.07594829 0.10776827 -0.12829393 -0.14606579 0.1500651 -0.04190981 0.091137625 -0.046191867 0.17266144 -0.08129655 0.007061899 -0.068328306 0.22798926 -0.09591482 -0.051905923 0.15053074 0.157361 -0.1672277 -0.042428043 -0.029275818 -0.26544383 -0.15224248 0.21889886 -0.15619989 -0.07487423 0.19564945 0.059312645 0.06595763 0.046121445 0.1244673 0.22809105 0.12928544 -0.015254569 0.12493834 0.058705747 -0.028607659 -0.20910439 0.035477728 0.12805894 0.029788457 0.19617456 -0.23360401 -0.04895123 -0.18819502 0.16574617 0.375182 -0.05639684 -0.08403401 -0.052616958 -0.09135405 0.002068544 -0.092806526 0.07280718 0.06779605 0.044705708 0.088876426 -0.11694636 0.045698762 0.061850917 0.06724631 -0.14129566 0.051353697 -0.13036487 -0.22567768 0.07896599 -0.04133095 -0.0010620006 0.099543944 0.031437162 0.15269256 0.15354109 0.14795533 0.027816452 0.16128527 -0.07801816 0.047540147 0.14687696 0.27082765 0.027587958 -0.2910064 -0.059629835 -0.14455448 -0.07533767 0.14652261 0.09855759 0.28525326 0.19814985 -0.097216785 -0.15826474 0.05462232 0.1765359 0.024154691 -0.05162283 -0.10765437 -0.053729255 0.14416121 0.020253913 0.18346694 0.0073755663 0.102401905 -0.20445693 -0.12780946
777 0.5952902 0.106631726 0.08542416 0.26259834 -0.030651333 -0.1761828 0.08674852 0.12321528 0.11326868 -0.18049331 0.055845737 -0.22495773 0.29011938 -0.14831825 0.27916703 -0.04761999 -0.08354203 0.2659283 -0.01415576 0.015995687 -0.14791566 0.14370333 -0.3705858 -0.19315763 0.20572692 0.24994594 0.028025316 -0.120424196 -0.20276186 0.11168843 0.045605063 0.13900954 0.14245634 -0.017137952 0.20828299 -0.1073905 -0.34420475 0.03911197 0.15695047 -0.19951232 -0.06718711 -0.09354628 0.28733167 -0.3393755 -0.12758079 -0.07819031 -0.083580405 0.11699131 0.12123844 -0.09253616 0.012406302 0.13839181 -0.1300842 0.06406737 -0.18112805 0.040028926 -0.047321126 0.0077508646 0.11096024 0.027049756 -0.11236683 -0.001336548 -0.26784423 0.33100066 0.37338883 0.024489751 0.2527537 -0.28678554 0.11902629 -0.13434556 0.14785005 0.13538824 0.3571215 0.08098925 -0.074428186 -0.30319118 -0.09962378 -0.11474569 -0.076967075 -0.12744385 0.15247178 0.09606728 -0.5169476 0.06371369 -0.15502402 0.15478322 -0.17501302 0.33327731 0.07022953 -0.15013815 0.0775573 -0.13761283 0.008969897 -0.020647872 0.3024319 -0.23504873 -0.00043376978 0.43256205 0.089500554 0.19356939 -0.12388276 -0.1019787 0.031432968 0.15677777 -0.04323788 -0.04454442 0.12788175 -0.3140082 0.010616511 0.025390603 0.08086847 0.21261546 0.11249393 -0.101817206 -0.060141202 -0.16795152 0.25789776 -0.032398805 -0.3517454 0.06340971 0.054899726 0.15563522 0.06881187 -0.15431792 0.2549645 -0.05216957 -0.2366765 0.15717857
343 0.08884829 0.023410141 -0.101315625 -0.064705454 -0.03671798 -0.14349642 0.114365816 0.11814151 0.13827285 0.035598315 -0.06860668 0.07513908 -0.11587814 -0.033945873 0.025346436 -0.08449121 -0.07875433 -0.0071495706 0.06607361 0.03830095 -0.22341183 -0.049742043 -0.08877759 -0.08673346 -0.12535785 -0.10795143 0.07527327 -0.056023724 -0.1445924 -0.17354552 0.058548383 -0.18441394 0.08600768 -0.032028843 0.16303566 -0.029014168 -0.09422961 -0.041603222 0.13294804 0.008527493 -0.021806322 0.22846745 0.17630315 0.10901375 0.048345894 0.10001173 -0.29203042 -0.21930733 0.13210511 0.03147409 -0.0017365074 0.31716982 -0.12907548 -0.15482786 0.20999119 -0.054055274 -0.008368896 -0.03167449 0.009448962 0.15551507 -0.085470304 0.006393124 -0.13231656 -0.055034176 0.061717 0.0827624 0.19088414 -0.062158484 -0.1826876 -0.18106999 0.08961427 0.37600443 -0.10269207 0.030374207 -0.114400275 0.1391582 0.14163597 0.05387695 0.047524646 0.13792853 0.06131824 0.017934196 0.21362075 -0.14427513 -0.083180204 -0.02176614 -0.24658386 -0.100054905 0.13838227 -0.11186934 -0.06899573 -0.029966276 -0.2239611 0.035973907 0.078155756 -0.030783683 -0.08610712 0.050331544 0.106725074 -0.09362335 -0.09051115 0.20104125 0.028873961 0.1218973 -0.1320263 -0.17646298 -0.05403384 -0.16335182 -0.090806164 0.29645577 0.13127537 0.29348198 -0.06950815 -0.13407664 -0.24131376 0.041130975 0.17818125 0.086523436 -0.12634714 -0.04650691 -0.17432053 0.15371644 -0.066114485 0.098258436 -0.022717284 0.05040235 -0.30617112 -0.031171154
577 0.324841 0.14451765 0.04831456 -0.06356806 -0.22563384 -0.13770668 0.045569174 0.23492105 0.045102436 0.16611756 0.14937223 -0.019445622 0.05675136 -0.055970352 0.22322021 -0.06191071 -0.06312786 0.13736488 -0.13782157 0.16269305 -0.09967137 0.18301643 -0.214399 0.094901174 0.050496634 0.29374358 0.15070291 0.07709978 -0.11096554 0.01075909 0.02180215 0.21965232 0.40282747 0.055281427 0.16042413 0.18330649 -0.23739614 0.19533065 0.13658193 -0.046069235 -0.022487616 0.13648438 0.29645243 -0.13442726 0.036561076 0.028893553 -0.14640531 -0.21651173 0.1748236 0.084782004 -0.28456542 0.21638054 -0.13883357 -0.2171622 -0.07573965 -0.1537929 0.022218365 -0.2422703 0.049418446 0.071872406 -0.021727087 -0.2340724 -0.35853142 0.17120369 0.22801043 0.14405026 0.1844906 -0.23525843 -0.09916145 -0.20217258 0.1889398 0.226158 0.3180052 0.08065193 -0.08263537 -0.0805102 0.26921362 0.009956184 -0.18822369 -0.04296916 0.1748887 0.13885583 -0.047083687 -0.117280744 0.00035730132 0.19771273 -0.17460376 0.05193285 0.25662827 -0.06967105 0.05995693 0.004172421 -0.08501346 0.15523092 -0.049321294 0.03722675 0.51627606 -0.10201703 0.120331585 -0.13553493 -0.3439162 0.11789164 -0.15859863 0.31795704 0.1081589 0.2218904 -0.18007065 -0.05620272 -0.3987884 -0.16415037 0.013418533 -0.09881011 0.14641565 0.008424345 -0.009834599 0.19006571 0.36313605 -0.0074161356 0.26812893 -0.07416274 0.13071702 0.15657763 0.17636108 0.06560141 0.11969773 -0.1565155 -0.3906167 0.11531602
47 0.30828482 0.1004571 0.022654964 0.027523724 -0.11976234 -0.14913017 0.06256861 0.16143143 0.07934912 0.03418567 0.052552007 -0.04780371 0.071655154 -0.08278573 0.15917239 -0.061315656 -0.059646327 0.13193795 -0.061065197 0.07609335 -0.10142129 0.09360353 -0.2270161 -0.0012424381 0.048140503 0.15750155 0.06710907 0.005017723 -0.105131775 0.005377218 0.033891078 0.12517476 0.20502755 0.02629363 0.13785082 0.049105372 -0.1956215 0.07137241 0.12432031 -0.067512505 -0.014629149 0.05275872 0.20152569 -0.11940813 0.02425288 -0.00018669425 -0.14231892 -0.09184546 0.13513544 0.0055756206 -0.12529498 0.17401381 -0.1274034 -0.10041112 -0.023033593 -0.048962817 0.0023174342 -0.12547325 0.04403927 0.052358568 -0.04063736 -0.10278536 -0.24362797 0.17002733 0.19740702 0.08468424 0.16955249 -0.19047493 -0.057491478 -0.14981857 0.13471776 0.2272062 0.2342029 0.051353857 -0.07899683 -0.0875442 0.10615521 -0.033326197 -0.089723505 -0.031996977 0.093030035 0.09244282 -0.115248054 -0.0410253 -0.045604303 0.13401926 -0.1518915 0.09974974 0.16667187 -0.08171503 0.041159123 -0.013326747 -0.086495206 0.09153712 0.062316533 -0.07142889 0.19373448 0.08119286 0.09524118 -0.040882315 -0.18442687 0.064468235 -0.05474583 0.2007634 0.0043752375 0.05639687 -0.033370845 -0.110599525 -0.18664466 -0.026330695 0.063662566 0.06287501 0.09476377 -0.043598097 -0.06409405 0.056996945 0.27874836 0.01033596 -0.0044411398 -0.013964067 0.04677385 0.1141714 0.07681483 0.006455017 0.106989756 -0.06515982 -0.30743003 0.07038709
150 0.12929073 0.06872798 -0.16881959 0.008215692 -0.10044318 -0.18425368 0.012339781 0.11734885 0.19068302 -0.14562142 -0.014482009 0.059746962 0.10495512 -0.18461756 0.061230484 -0.14009744 0.12529734 0.030497493 0.039181728 0.04233988 -0.114873014 -0.100795 -0.14475645 -0.07693688 -0.11505905 -0.02322076 -0.015341367 -0.029910194 -0.024603063 -0.14361589 0.19850382 -0.053516377 0.078493446 -0.039148342 0.08739074 -0.0284995 -0.029398214 -0.042253397 0.2572646 0.0057122153 -0.038375318 0.16819249 0.1665364 0.0023252259 0.03275892 0.12980367 -0.12771598 -0.09893891 0.19353169 0.026640695 0.02222813 0.254281 -0.12060763 -0.06860777 0.10592273 -0.04419927 0.01169705 -0.017307667 0.005031732 0.13147363 -0.08823073 -0.038142674 -0.13467856 0.09508266 0.17210786 0.062918454 0.25962788 -0.22033575 -0.16024767 -0.030377932 -0.0055936566 0.36931914 0.030789634 0.005268884 -0.041561946 0.096066855 0.0934636 -0.037454322 0.07995543 0.06855643 -0.12569347 0.1430529 0.09313095 -0.027664859 -0.079239845 -0.008378777 -0.10415525 0.13818325 0.01198486 -0.16508222 0.10779019 -0.10240557 -0.20457982 0.03569958 0.13853955 -0.23794134 -0.16733733 -0.006909929 0.16959812 -0.032708686 -0.07412406 0.13455072 0.02426678 0.0071520973 -0.15411308 -0.14453764 -0.02355489 -0.2240343 -0.032477282 0.06237713 0.083747305 0.2895245 0.001147041 -0.011557552 -0.16296123 0.058127623 0.04716405 0.011271065 -0.14990889 0.15466668 -0.068292536 0.039912373 -0.05773449 0.0038724802 0.08535162 0.051719334 -0.2521998 -0.18762676
1 0.15795447 0.039502718 -0.10258708 -0.03309536 -0.13543881 -0.20176278 -0.031104809 0.1480858 0.15100095 0.02719041 0.051517155 0.04516711 0.04277721 -0.049045898 0.08792398 -0.04001171 -0.014961989 0.07580421 -0.08017466 0.10830968 -0.08471855 0.008642196 -0.121809095 0.04778525 -0.028138539 0.07479358 -0.01090535 0.05716967 -0.032076985 -0.061365716 0.13316767 0.030976461 0.23774418 -0.017939864 0.09332731 0.028909057 -0.029866943 0.046685595 0.1320693 -0.053748745 0.00039013146 0.14706488 0.23120579 6.308514e-05 0.014972516 0.085183054 -0.1624738 -0.14070088 0.17747188 0.023966111 -0.12931621 0.23720749 -0.1404932 -0.14465056 0.07667846 -0.023235722 0.123208 -0.058411203 -0.0054974323 0.09046908 -0.025966153 -0.048791368 -0.25986668 0.10744296 0.11904442 0.11283406 0.14675695 -0.18977551 -0.09329236 -0.156493 0.09899586 0.28153998 0.14289318 0.01993064 -0.07062669 0.058910757 0.24434389 -0.012689507 -0.025445854 0.006624175 -0.014687656 0.08643313 0.05289904 -0.036606595 -0.029952992 0.038303856 -0.06912828 0.028379446 0.062393304 -0.098548666 0.043244585 -0.029692236 -0.07540328 0.14364982 -0.0064882333 -0.050616104 0.10239186 -0.07037901 0.11590049 -0.1034414 -0.1480612 0.12740293 0.01063815 0.15792985 -0.0028773309 -0.030490715 -0.07172516 -0.042475488 -0.11972271 0.00043880485 0.08677964 0.073195055 0.043303285 -0.033045437 -0.05913406 0.10796768 0.12128583 -0.015113172 0.030778877 0.02245492 0.009162832 0.092339866 0.072505236 0.08404121 0.023226814 0.010223952 -0.28574586 -0.100742444
93 0.116914414 0.08754696 -0.2188255 0.033826422 -0.17532544 -0.16789892 -0.113979235 0.1609888 0.23065893 -0.2955966 -0.04072827 0.063954376 0.26390848 -0.3947269 0.1365426 -0.1806805 0.40747905 0.022609934 0.07108416 0.08078726 -0.00055064075 -0.09470982 -0.19489948 -0.027761323 -0.19765832 -0.027163245 -0.09011682 0.024714231 0.07607312 -0.12606156 0.31058684 0.120082155 0.13305956 -0.0539856 0.030391281 0.028753586 -0.07516773 0.017629648 0.41358322 0.034163043 -0.015374403 0.16683382 0.17054813 -0.052966245 0.0071376385 0.2329477 0.008182683 0.006451477 0.21173705 0.0023704416 0.042640552 0.2535939 -0.14863014 -0.16366449 0.1257985 -0.042549502 0.035222426 -0.066461734 -0.03027651 0.12207191 -0.10098795 -0.1880619 -0.060612433 0.21068661 0.32396144 0.00441183 0.45138773 -0.35868216 -0.21074098 0.113652624 -0.0364448 0.36312652 0.17825827 -0.10585085 0.08584252 0.16126 0.10976061 -0.09312767 0.11810933 0.01640521 -0.3129251 0.38369623 0.18090641 0.035115313 -0.1080794 -0.018857036 -0.027034443 0.21440873 0.011994263 -0.28949973 0.19845822 -0.1420628 -0.20107786 0.113267906 0.14398894 -0.42386165 -0.15861118 -0.103214264 0.31014165 -0.026544992 -0.14295946 0.14860317 0.031398736 -0.0323623 -0.29589006 -0.035786998 -0.14714293 -0.29814303 -0.06499883 -0.14271578 -0.015360623 0.26365715 0.041781567 0.13317047 -0.17291653 0.13389078 0.026737563 0.0035911195 -0.018286483 0.32487354 -0.02541975 -0.13032311 -0.05301313 -0.021972343 0.24310282 -0.032446936 -0.35622737 -0.3197056
293 0.38638124 0.07992666 0.06013162 0.10529778 -0.053219482 -0.2707943 0.085165314 0.11800058 0.09844929 0.042192318 -0.076592244 -0.13635185 0.1214454 -0.11746905 0.21796034 -0.056023248 -0.09310327 0.17732644 -0.045603435 0.044859745 -0.072256245 0.084980875 -0.2977921 -0.024282208 0.1526458 0.036657512 -0.01599886 -0.082500644 -0.109183215 0.06922538 0.022679819 0.070789106 0.1078271 0.019109095 0.07852935 -0.04133309 -0.21710716 -0.03302975 0.030565256 -0.10158925 -0.0043420307 -0.10514685 0.17049631 -0.07266829 0.045840465 0.03093512 -0.1756429 0.03296743 0.031536426 -0.018115683 -0.0040781796 0.19121656 -0.22853595 -0.022522109 0.041345816 0.05491823 -0.0058757477 -0.087332726 0.06920626 0.021246264 -0.038902465 0.049415577 -0.23948097 0.2583527 0.17188506 0.06413396 0.09655473 -0.17257233 0.027881607 -0.21149877 0.14441544 0.19154881 0.32703945 0.10173555 -0.12960397 -0.08963498 0.027219834 -0.10815047 -0.044861123 -0.08941431 0.10310785 -0.016321685 -0.22629334 0.00238939 -0.10729984 0.14453357 -0.1589945 0.16684294 0.20568691 -0.035179384 0.01162274 0.027362078 -0.13165842 0.0980861 0.110931806 -0.16932884 -0.12447137 0.28478312 0.055036686 -0.06268751 -0.05561067 0.042930923 0.0047487426 0.08139489 -0.06834129 -0.04711284 0.1778439 -0.14935899 0.048562784 0.12687054 0.20460689 0.09192464 0.007120689 -0.17937921 -0.028929982 -0.1056846 0.2659838 0.007820221 -0.30505568 0.04277898 -0.021818299 0.10243905 0.028189685 -0.06002617 0.054331146 0.028238302 -0.29399806 0.11206955
165 0.13172767 -0.05155832 -0.09925808 0.011184121 -0.1340913 -0.20695736 0.008433949 0.15209036 0.22060986 1.377461e-05 -0.011200327 0.10214976 -0.09158257 0.038302295 -0.012715668 -0.041090604 -0.17856194 0.04488603 -0.047170173 0.017878003 -0.18208095 -0.040572077 -0.17681372 -0.039367076 -0.13052173 -0.03138651 -0.03220692 0.055853423 -0.09520412 -0.13159765 0.13505654 -0.11868852 0.09416426 -0.021431351 0.12904283 -0.039087996 0.030146088 -0.060334668 0.15827332 -0.040927973 -0.04844642 0.19444396 0.12289449 0.015981289 0.050579842 0.045178737 -0.27444148 -0.17301877 0.16239256 -0.060699765 -0.07833934 0.259229 -0.0058014155 -0.039631754 0.12843002 0.052611616 0.15775006 0.051884267 -0.027162412 0.1248611 0.011491331 -0.011653211 -0.19041319 0.014850861 0.070974156 0.04842841 0.17076275 -0.14335254 -0.11628228 -0.18616484 0.1193177 0.41129526 -0.08614768 -0.042526107 -0.059087947 0.031313986 0.1166851 -0.024135487 0.079625666 0.078427315 0.019804852 0.07584431 0.063437976 -0.012050257 0.019541284 0.01985916 -0.1670878 -0.042558078 -0.012767433 -0.1571902 0.02268753 -0.02872686 -0.10991358 0.1098317 0.021823645 0.06776929 0.051675104 0.04892425 0.06364865 -0.020811006 -0.090926185 0.14708637 0.10483015 0.2416188 -0.036274794 -0.24047492 -0.045911428 -0.11642341 -0.09312561 0.19984782 0.15499045 0.28936264 0.084397666 -0.13344605 -0.18691616 0.08985561 0.19320275 0.036264904 -0.05804083 -0.07672501 -0.10736421 0.11874959 0.011994954 0.14288205 -0.021915566 0.096191935 -0.28141844 -0.1128058
108 0.2755405 0.14152075 0.07081647 -0.14901713 -0.21292463 -0.17159721 0.049782895 0.209257 0.012331724 0.33566377 0.13446927 0.0128385695 -0.017481774 0.02454044 0.22541678 -0.08457437 -0.1317747 0.06939371 -0.19141899 0.2172906 -0.1367453 0.20776409 -0.14909422 0.16259015 0.10298282 0.29800102 0.18694864 0.06961663 -0.13116097 -0.0077249953 -0.014370732 0.09401739 0.45868763 0.09380383 0.140147 0.22631785 -0.20727938 0.16387711 0.026954915 -0.004207898 -0.012617411 0.12662591 0.31377542 0.029547233 0.10329877 0.09714766 -0.18797402 -0.32583848 0.16291343 0.17589624 -0.34358782 0.2654448 -0.18184136 -0.23254868 -0.029627562 -0.24817966 -0.014492324 -0.2893399 0.04220839 0.082425505 -0.009213937 -0.21345428 -0.42953205 0.11264421 0.1368371 0.21142639 0.10831539 -0.15748613 -0.107148044 -0.2606586 0.18209767 0.26210615 0.31653678 0.17768303 -0.16496399 0.0028137167 0.35096496 0.058531333 -0.22494361 -0.013694804 0.2670076 0.025438162 0.06532754 -0.21486732 -0.0064302185 0.24277614 -0.23015182 -0.004234609 0.33615306 0.04535195 0.039764438 0.0039039594 -0.16431488 0.14999272 -0.11262371 0.10870423 0.576139 -0.15284163 0.13156673 -0.31185934 -0.37871134 0.20722972 -0.25311545 0.3404612 0.13846503 0.23416281 -0.16365911 -0.035277586 -0.44873694 -0.11245793 0.05144436 -0.12638228 0.06479076 -0.07336212 -0.0053596925 0.20159683 0.45893103 -0.009911667 0.29133525 -0.12291424 0.076283805 0.2617491 0.1937869 0.09107777 0.047828585 -0.12933408 -0.48992348 0.1603834
228 0.14108723 0.017039461 -0.08672214 -0.004828448 -0.03265789 -0.1748973 0.0912421 0.112685144 0.15734318 0.002793657 -0.04485649 0.05108644 -0.04784349 -0.048023216 0.061861724 -0.07948034 -0.104668766 0.020483738 0.042968817 0.028746944 -0.21262175 -0.036542535 -0.12671278 -0.07355027 -0.08898347 -0.048560254 0.031287584 -0.050768316 -0.13741362 -0.14593671 0.06938703 -0.15129144 0.089799136 -0.040776554 0.14439943 -0.034933016 -0.087029904 -0.05870307 0.1353295 -0.030178357 -0.035777085 0.17812765 0.17479043 0.06702462 0.031984642 0.09838682 -0.26330835 -0.16512638 0.14854504 -0.00063002796 -0.00844623 0.29062405 -0.11590814 -0.08178485 0.14787203 -0.040701 0.010740295 0.0019738083 0.025590204 0.1350403 -0.06564043 0.026220696 -0.16222592 -0.0011326513 0.10471495 0.085431606 0.18421265 -0.12272213 -0.12691016 -0.17594299 0.083996296 0.34260115 -0.040469583 0.055333637 -0.11769185 0.08913759 0.1224983 0.0042115673 0.047734596 0.09172607 0.061059263 0.022369672 0.10751402 -0.0928778 -0.07193844 0.0051485156 -0.20407219 0.0015162749 0.09095794 -0.11555978 -0.011767298 -0.042544857 -0.19721845 0.03971371 0.08631254 -0.039601397 -0.11249384 0.09960854 0.09187389 -0.05293397 -0.0572766 0.14851333 0.036077667 0.08256889 -0.10585362 -0.18625861 -0.008696982 -0.16599156 -0.026873967 0.23021047 0.1211925 0.26342732 -0.040935557 -0.13527854 -0.191386 0.0048054676 0.13773051 0.047693614 -0.14650592 -0.0063921153 -0.16041414 0.13416797 -0.063779935 0.06104944 -0.0037080285 0.06974919 -0.23170303 -0.03802973
113 0.16223358 -0.11182681 -0.10932123 0.08314821 -0.16863611 -0.17882167 0.02276415 0.21988323 0.31542072 -0.094443046 0.07637019 0.118469894 -0.15079121 0.061085068 0.016022557 -0.043011002 -0.34960264 0.015147105 -0.03788748 -0.034439642 -0.31240448 -0.0634204 -0.2737086 -0.15083802 -0.29775667 -0.00044186352 -0.060013227 0.13562523 -0.1596424 -0.2557337 0.18496609 -0.117173456 0.041817535 -0.0550744 0.21025604 -0.096681304 0.02685198 -0.093982026 0.34530687 -0.05422508 -0.08913078 0.2606072 0.1581273 -0.17550519 -0.028855434 -0.03730243 -0.3351845 -0.24745117 0.28452834 -0.18071695 -0.058999855 0.25038585 0.13772345 0.07116196 0.094996706 0.09943875 0.22458081 0.1492367 -0.045590732 0.19920468 0.062250644 -0.076246 -0.1759667 -0.053079117 0.12834738 0.025317945 0.29032847 -0.2564965 -0.13529372 -0.19437854 0.18906713 0.51757646 -0.22341536 -0.13139945 -0.041264046 -0.06325263 -0.053475305 -0.08617258 0.13828859 0.17350347 0.03743463 0.12612854 -0.03727364 0.0029706154 0.101739414 0.06580144 -0.22507188 0.004122493 -0.18620744 -0.2904501 0.08010999 -0.05600616 -0.047014907 0.07474047 0.036899403 0.2350283 0.19529901 0.13397188 0.03856969 0.2194662 -0.11239591 0.09165328 0.15063533 0.3153981 0.0039012397 -0.39224938 -0.14818922 -0.2039155 -0.15957744 0.22028697 0.08614378 0.42368883 0.22997594 -0.097033694 -0.24488801 0.077017084 0.19984253 0.079831704 0.012814215 -0.16933209 -0.11587496 0.16562785 -0.018076524 0.2692503 0.0009291703 0.12796752 -0.22552487 -0.19061172
532 0.14849237 0.056902852 -0.05217378 0.0007422772 -0.031765606 -0.2915591 0.01115807 0.09628611 0.10926582 0.09454362 -0.09651518 -0.031510502 0.043367233 -0.09429058 0.13197581 -0.044919215 -0.048304457 0.053070314 -0.04934106 0.07166624 -0.04139598 -0.0011831953 -0.13671231 0.07637477 0.06821123 -0.065896794 -0.081879355 -0.071984254 -0.03286689 -0.02076861 0.06412047 -0.039984256 0.11930264 -0.027530456 0.013782543 0.008267939 -0.054524936 -0.078267515 -0.011560837 -0.036468603 -0.0068034516 -0.022998577 0.11762356 0.14712323 0.10915783 0.16902663 -0.18737915 -0.041421037 0.06564101 0.060977433 -0.012762534 0.24019782 -0.24554679 -0.07281859 0.15750949 0.0025052563 0.048044574 -0.0680963 0.018732022 0.058137212 -0.031195391 0.067486756 -0.2256688 0.15732189 0.054214813 0.1235975 0.03485802 -0.13039447 -0.032979857 -0.23836538 0.07734689 0.2166839 0.2352778 0.10368687 -0.12826426 0.14010839 0.22325091 -0.083128065 0.023020366 -0.05892958 0.025561325 -0.031254396 0.054846242 -0.028337622 -0.055911563 0.07459263 -0.07419976 0.085543826 0.19400802 0.0036113271 0.015186966 0.03959264 -0.20009865 0.13452652 -0.028469382 -0.12445083 -0.1798879 0.114749685 0.14827552 -0.28189924 -0.085390575 0.19577499 -0.03965098 0.07061802 -0.082459964 -0.10792002 0.15951905 -0.11289015 0.06964129 0.14862218 0.27679735 0.10085211 -0.051920798 -0.22937025 -0.06364215 -0.009445966 0.25786072 0.00041469917 -0.24274655 0.09090298 -0.10052505 0.123872735 0.05025726 0.03447408 -0.01458735 0.11025524 -0.43393174 -0.03829138
912 0.08215343 0.27469206 -0.27470922 -0.2115549 -0.0609392 -0.23720992 0.19793157 0.00025385292 0.09101077 -0.014543365 0.2773204 0.10482335 0.12773591 -0.06558423 0.05275564 -0.28196114 0.026065249 0.049203005 -0.081048325 0.16478513 -0.2119746 -0.24236141 0.0737702 -0.11284044 0.07440025 0.26751417 0.17867719 -0.13894123 -0.06737754 -0.25558615 0.12350641 -0.30592003 0.16172223 0.050472807 0.07360339 0.031618625 0.20009084 -0.064717494 0.16522706 0.04236275 -0.081608474 0.25124142 0.320156 0.14412634 0.10043544 0.10690159 -0.07756398 -0.42235324 0.32821485 0.33897105 -0.06149249 0.21637948 -0.26918522 0.12392665 -0.114957966 -0.39148632 -0.1900631 -0.05685762 0.08758317 0.1900919 -0.13816838 0.1713601 -0.43562245 -8.1502905e-05 0.031549554 0.3236706 -0.10548727 -0.18317014 -0.17451476 -0.09586657 -0.24196662 0.4380987 -0.060541913 0.37856835 -0.33124933 0.08222852 0.17566931 0.038048472 -0.068808496 0.21586333 -0.01877053 -0.29621395 0.04272 -0.17367439 -0.06360453 0.01895905 -0.03389721 0.40077657 -0.10361084 0.13620366 0.2716156 -0.17098378 -0.35445186 -0.19392157 0.18344861 -0.22676338 -0.07771187 -0.20461394 0.21691561 -0.26639012 -0.19961506 0.21820448 -0.33321396 -0.1462368 0.16370648 -0.13300726 0.13773054 -0.33244625 -0.17620274 0.03167338 0.20102012 0.30464873 -0.1203935 -0.10345782 -0.009333883 0.0813595 0.027623247 -0.12563822 -0.37982744 0.22365725 0.029371502 0.45818585 -0.047755897 -0.034985956 -0.1032946 0.21381466 -0.29756314 -0.20703304
601 0.55482227 0.16236795 0.098591834 0.17344148 -0.027552113 -0.23559164 0.1624166 0.106458165 0.076083936 -0.016969573 -0.003769558 -0.23581767 0.20678668 -0.13068758 0.27645516 -0.058960192 -0.11727988 0.28022704 -0.05058894 0.042630427 -0.101507865 0.11949368 -0.3621385 -0.10684523 0.2616607 0.18050279 0.030907663 -0.12837197 -0.17176822 0.13521403 -0.021756494 0.14111553 0.12071771 0.039512664 0.15300886 -0.08225302 -0.31767577 0.0026025714 0.03864909 -0.17502633 -0.008476536 -0.14491908 0.24840958 -0.22142258 -0.008497267 -0.075685404 -0.14879891 0.056044415 0.06793306 -0.034015898 -0.008224523 0.13967328 -0.24961792 0.033304956 -0.09858158 0.042957246 -0.060445208 -0.0827827 0.11046689 0.0042747897 -0.08517327 0.0643086 -0.30805966 0.33114162 0.275785 0.07600477 0.09333052 -0.22463305 0.09154403 -0.2176615 0.14006174 0.15641508 0.42856875 0.14869148 -0.16690433 -0.2579223 -0.043311026 -0.13122115 -0.12805793 -0.12140262 0.15587687 -0.052739754 -0.46024284 0.023167646 -0.15541232 0.1877185 -0.17373456 0.30197492 0.19919898 -0.044648793 0.054838322 -0.01794373 -0.06862931 0.029533967 0.21276663 -0.24012026 -0.091337994 0.39819893 0.04803812 0.038842976 -0.08511626 -0.05724831 -0.024095085 0.096925974 0.0024026283 -0.007886476 0.23335345 -0.21020404 0.035608456 0.0914085 0.17593686 0.11294636 0.032413132 -0.15621912 -0.0063924673 -0.17232141 0.30403394 -0.016258342 -0.43116227 0.06330311 0.06529716 0.18618906 0.046038896 -0.13846354 0.11743571 0.007737503 -0.270462 0.17988676
25 0.3028477 0.09158772 -0.07195609 0.093331896 -0.060261752 -0.1821573 -0.017625783 0.095462784 0.13889845 -0.12342997 0.018861735 -0.0706493 0.20388746 -0.14423756 0.14172989 -0.054360174 0.069106005 0.15846469 -0.028417012 0.06597782 -0.046075244 0.013467273 -0.1819279 -0.03397797 0.087362155 0.10870172 -0.044150136 -0.047197994 -0.035650034 0.03744214 0.12814738 0.09012142 0.16434105 -0.030934379 0.107209176 -0.04131882 -0.124900974 0.033049837 0.12779076 -0.1083107 -0.0011640845 0.03146479 0.22561644 -0.09971336 -0.03485993 0.049690865 -0.07728542 0.0300686 0.15544951 -0.015357118 -0.030213023 0.17996173 -0.1860311 -0.07265871 -0.017436238 0.008824887 0.04690073 -0.02356027 0.039775286 0.048961356 -0.09006479 0.00228177 -0.23018296 0.22746044 0.22833768 0.07566609 0.16957906 -0.23428243 -0.011150938 -0.09346998 0.04497798 0.18567608 0.26946017 0.043585964 -0.048051413 -0.04205414 0.13245685 -0.06493139 -0.028260695 -0.076854885 -0.03607732 0.090046585 -0.15126716 0.04356992 -0.11502607 0.035319906 -0.035107452 0.19159286 0.05174452 -0.11298936 0.08219484 -0.087072946 -0.03066977 0.081141375 0.14117068 -0.2552516 -0.088992506 0.11966795 0.1614897 -0.038923442 -0.12564845 0.0486762 0.025447052 0.09116929 -0.06769065 -0.02624125 0.058219057 -0.1600194 0.0025804774 -0.016364675 0.11242993 0.15156361 0.03518041 -0.050181553 -0.05679261 -0.010529963 0.14234152 -0.039511487 -0.21507964 0.14617386 0.03332284 0.094152585 0.075362764 -0.04282118 0.13633275 0.008420532 -0.30445915 -0.05600991
72 0.18271388 0.021763768 -0.097336926 0.020104574 -0.09357654 -0.22223066 0.031348787 0.11704778 0.1866894 -0.023458317 0.0039586737 0.026502753 0.016550202 -0.037696645 0.07217953 -0.052538533 -0.11321973 0.087200426 -0.03788677 0.034417383 -0.14512655 -0.043807633 -0.17078386 -0.044386413 -0.05172752 0.005095927 -0.040258184 0.008290327 -0.077474065 -0.09693196 0.12598917 -0.054298833 0.11355245 -0.030875135 0.10607109 -0.04819156 -0.018460073 -0.054092586 0.14974873 -0.06373578 -0.019996878 0.11400115 0.17505053 -0.014161666 0.023807991 0.057697874 -0.21265559 -0.11879784 0.16892685 -0.019510912 -0.037565324 0.22361743 -0.11348333 -0.031276263 0.09076438 0.031569444 0.10429308 0.020421823 0.004499665 0.110423625 -0.021086434 0.02326798 -0.22257179 0.08012998 0.104139686 0.088206686 0.12861122 -0.18488145 -0.08286222 -0.176734 0.08842576 0.32356077 0.055642385 0.019387675 -0.09519095 0.02585098 0.11601356 -0.06109051 0.04106805 0.040242914 0.001155619 0.023439096 -0.015741048 -0.007726697 -0.023489747 0.035859916 -0.10022302 0.067120776 0.0103451675 -0.11993058 0.04633876 -0.03544738 -0.103888266 0.09181649 0.05647959 -0.047350146 -0.06481659 0.073127806 0.07897093 -0.024401002 -0.05975503 0.099528134 0.048304882 0.10767615 -0.033453155 -0.17183103 0.030747503 -0.122785985 -0.012489168 0.13160123 0.14632294 0.20770277 0.03762162 -0.107040316 -0.10347033 0.022555599 0.1156232 0.012768047 -0.15447979 0.0073938794 -0.05824026 0.119305655 0.0036689905 0.07903595 -0.010519446 0.09764477 -0.23377098 -0.097478606
4 0.14771037 0.057369724 -0.12471604 0.011292273 -0.09503851 -0.17053507 0.014675407 0.097312555 0.18955918 -0.06625169 0.029390663 0.02772686 0.030149035 -0.052035756 0.056872357 -0.05225958 -0.0333138 0.093649544 -0.028352732 0.036554154 -0.12308117 -0.06925559 -0.14344493 -0.047947783 -0.06152118 0.03526393 -0.05230971 0.028539466 -0.0550012 -0.08142171 0.13472761 -0.005298659 0.12163972 -0.022926912 0.1241748 -0.053655095 -0.012378902 -0.030541034 0.16845684 -0.07432068 0.017040187 0.15004139 0.20125546 -0.036613684 0.0010885173 0.034171835 -0.17772405 -0.11636857 0.20259924 -0.02789982 -0.047979806 0.20507124 -0.121627085 -0.06009504 0.07298566 0.033098586 0.13044558 0.030745547 -0.008218186 0.11446295 -0.026189122 0.0017126275 -0.21827362 0.0673768 0.12761554 0.09491978 0.1242404 -0.19029886 -0.10117399 -0.14459495 0.050032787 0.3158949 0.07307884 0.0043799262 -0.08491712 0.015298044 0.131818 -0.04666057 0.0035977282 0.039228283 -0.06384419 0.032860573 0.0088111935 0.016292786 -0.03585247 0.017427025 -0.055714667 0.07934357 -0.036557693 -0.14986666 0.070378676 -0.05973333 -0.039801624 0.094748795 0.062665455 -0.10432088 -0.03683048 0.00883218 0.10700561 -0.019724537 -0.08532489 0.083357 0.045236543 0.10981786 -0.024263807 -0.15450437 0.0024527872 -0.09300456 -0.039956104 0.061232477 0.09393026 0.20044172 0.048885882 -0.03960097 -0.11664253 0.06868943 0.08348145 -0.011729422 -0.1329412 0.05101802 -0.0032779567 0.11326646 0.013927167 0.090411685 -0.0037980364 0.09869737 -0.24689223 -0.16141574
140 0.18061616 0.038513005 -0.08529918 0.038172115 -0.06313843 -0.2073934 0.023935737 0.10731062 0.17176655 -0.021036081 -0.02364867 0.0045944154 0.035864774 -0.04911952 0.07175561 -0.042310875 -0.092452966 0.08567297 -0.024618477 0.027472356 -0.11617091 -0.03387987 -0.15912816 -0.03076585 -0.02088936 -0.008796228 -0.052828174 -0.020943187 -0.06286604 -0.061710242 0.119058035 -0.03248938 0.09490051 -0.032607604 0.09661287 -0.052556816 -0.039708473 -0.052550856 0.11083485 -0.068520635 -0.010822835 0.0825512 0.15788423 0.003733969 0.038337104 0.06215267 -0.19616637 -0.07839234 0.15181 -0.016672038 -0.028571991 0.21225293 -0.13568962 -0.049108807 0.09096157 0.026245425 0.090566196 0.0041325106 0.0042897523 0.09856669 -0.028255526 0.03654344 -0.20823656 0.10337858 0.10353119 0.08586139 0.11501288 -0.16561861 -0.0674639 -0.1777418 0.0772847 0.29007822 0.097408004 0.027435321 -0.08504656 0.03955545 0.12760666 -0.066725045 0.03645622 0.012256353 -0.012625368 0.01967152 -0.022879487 0.00636125 -0.038845476 0.033031907 -0.08888814 0.07785125 0.048524562 -0.09856177 0.028466683 -0.02589077 -0.10168602 0.09578421 0.04858959 -0.08210771 -0.09056028 0.104708746 0.10371109 -0.07198849 -0.07178707 0.113553844 0.03295514 0.11408357 -0.050160185 -0.1551807 0.06399784 -0.118197806 0.006240781 0.13066584 0.17378983 0.19957942 0.016136875 -0.13077201 -0.103221096 0.01277611 0.15245439 0.009000062 -0.18253386 0.02764522 -0.055882476 0.12280108 0.020097388 0.062932745 0.005768841 0.0880613 -0.2843929 -0.091174684
195 0.20900975 -0.10572273 -0.094470695 0.11644719 -0.18223667 -0.18404877 0.014526666 0.22177729 0.31692675 -0.107898 0.07832131 0.07255097 -0.105301246 0.053429 0.040809214 -0.01689852 -0.35356647 0.05753223 -0.04247608 -0.04575839 -0.29546782 -0.03129412 -0.30831447 -0.15348576 -0.26809138 0.035632093 -0.08418612 0.16102082 -0.16308525 -0.23205884 0.18425667 -0.052200384 0.0685243 -0.06665893 0.21593359 -0.096941546 -0.004934341 -0.078216575 0.34732378 -0.07947962 -0.073302165 0.23003456 0.16946201 -0.23461519 -0.05879312 -0.061600596 -0.31008136 -0.19826908 0.27869016 -0.2150459 -0.070650026 0.2155983 0.14905481 0.07124327 0.08178881 0.14792836 0.25529453 0.14940278 -0.036936477 0.1734906 0.07000414 -0.0952567 -0.19375911 -0.0123514505 0.15466611 0.01834349 0.28840002 -0.27411577 -0.09450049 -0.19275536 0.211142 0.47013104 -0.14924525 -0.15898417 -0.038338184 -0.10354773 -0.05835869 -0.10772858 0.11484307 0.120549574 0.0343515 0.16034156 -0.093107946 0.032013245 0.09822553 0.06989539 -0.18176413 0.008875912 -0.18995675 -0.30738086 0.086476736 -0.052488264 -0.0061726077 0.10824106 0.046872634 0.22744395 0.18808062 0.16072604 0.012300908 0.27922994 -0.0780721 0.04705858 0.17807749 0.29662487 0.013443746 -0.37591293 -0.14824113 -0.16022994 -0.11872641 0.17584786 0.059831608 0.37224206 0.2479621 -0.07491525 -0.19459018 0.06002814 0.15756053 0.075720176 0.02499419 -0.16620243 -0.073440835 0.122590594 -0.011131135 0.23424762 0.015957579 0.11373525 -0.14426655 -0.16209592
1053 0.09537125 0.15160666 -0.18426977 -0.046179738 -0.0892506 -0.13438019 -0.04985171 0.051853802 0.16213006 -0.068956174 0.041832473 0.019444425 0.10860313 -0.12241814 0.06573915 -0.018091528 0.14730956 0.1100421 -0.04975819 0.10654169 -0.033281595 -0.08957575 -0.066028655 0.0141653735 0.013049759 0.06819383 -0.09107747 0.034121737 0.013055244 -0.014830693 0.13805614 0.1053974 0.20561121 -0.025577122 0.10317809 -0.024819888 0.0007666736 0.02882802 0.12816761 -0.10538289 0.09330629 0.1416203 0.2558646 0.013465144 0.013422353 0.06801594 -0.11144041 -0.10503817 0.23674157 0.017914953 -0.07196115 0.18560417 -0.2615866 -0.1740898 0.06854047 0.019999145 0.1609403 -0.00013020606 -0.017637601 0.093195856 -0.064774595 -0.014230465 -0.2655332 0.11404754 0.15348399 0.14365004 0.07285172 -0.19780357 -0.085416935 -0.1372989 -0.003984351 0.24133384 0.2593218 0.03298423 -0.09622771 0.073567264 0.30864516 -0.05022401 -0.074618235 -0.0178855 -0.16928557 0.012193162 0.069842786 0.030161913 -0.07413889 -6.776445e-05 0.06637512 0.10408737 -0.016482746 -0.13124256 0.092049815 -0.0735302 0.025480298 0.1538875 0.013152072 -0.2555731 -0.039994713 -0.14088994 0.20257606 -0.15151793 -0.12770893 0.08565006 -0.016426962 0.081307195 -0.019607449 -0.07374411 0.029250693 -0.03414748 -0.019137772 -0.05849907 0.0908879 0.09688518 0.008905199 0.016082497 -0.095071204 0.12856066 0.047469098 -0.08738545 -0.16158211 0.16483262 0.08216294 0.10332267 0.07364642 0.081585266 0.00637803 0.11006759 -0.34890604 -0.2417642
27 0.21118884 0.089833006 -0.075282186 -0.030236078 -0.10425703 -0.21567258 0.013493006 0.115591496 0.11739048 0.047157202 0.033548567 0.0056353007 0.097521804 -0.07016821 0.12406322 -0.07508269 -0.0018793949 0.101704575 -0.085162655 0.11822538 -0.0722391 0.013912167 -0.12851642 0.046744008 0.055114273 0.09956244 0.018867932 -0.01584411 -0.03176066 -0.022822747 0.100949585 0.018053884 0.21958886 0.007854436 0.06519624 0.02940187 -0.05712666 0.026340285 0.08132494 -0.048050232 -0.0037474902 0.086247124 0.21575531 0.025844501 0.04503138 0.09715725 -0.14194387 -0.11194367 0.14684029 0.07942146 -0.10831045 0.22064766 -0.19059971 -0.10154075 0.030500207 -0.06941324 0.04068492 -0.09343163 0.025209159 0.06962487 -0.054053217 -0.0072898045 -0.2754788 0.15193225 0.12140092 0.13328208 0.096354805 -0.17755821 -0.07199261 -0.15375172 0.054416806 0.24203482 0.2066648 0.09653837 -0.11319693 0.03501258 0.2177158 -0.02590476 -0.04421084 -0.015409153 0.014094997 0.01537554 -0.006283692 -0.048541535 -0.0534943 0.067271404 -0.0683929 0.107101716 0.11870947 -0.031939864 0.060809836 -0.03214039 -0.1221672 0.10270026 0.032538585 -0.123640634 0.020493444 -0.03006562 0.111080885 -0.15562929 -0.13100228 0.121157624 -0.051978048 0.08389619 0.001958325 0.0032331217 0.026165256 -0.08093596 -0.0767015 0.0031529537 0.12666048 0.06461004 -0.004483764 -0.06905313 -0.020576498 0.056594074 0.13534464 -0.028478881 -0.07865811 0.06779948 0.014213831 0.12098421 0.06652726 0.012774492 0.02331436 0.020323828 -0.2839294 -0.044700284
282 0.1750765 0.07564434 -0.113352716 -0.019680059 -0.061402705 -0.1927922 0.08733689 0.08338574 0.15294804 -0.014458677 0.04438556 0.032296248 0.014282534 -0.017421737 0.047489688 -0.1032125 -0.106462 0.07169931 -0.026035737 0.04341883 -0.17445025 -0.070617594 -0.10914327 -0.076472685 -0.010021624 0.049736377 0.031060586 -0.051377315 -0.10140236 -0.102477044 0.09666144 -0.12309584 0.10298125 -0.012275354 0.13109532 -0.042420056 -0.008472645 -0.053633627 0.11924594 -0.049297716 -0.039709516 0.15296952 0.18794878 0.02451985 0.044492695 0.043168902 -0.19668905 -0.18051678 0.20124665 0.053514365 -0.038027063 0.2248793 -0.12967585 -0.012379137 0.04635128 -0.068142205 0.011463504 -0.0032746454 0.02973512 0.11789322 -0.06564368 0.048050236 -0.2481786 0.03725813 0.08046611 0.12740023 0.07649765 -0.14806986 -0.096771166 -0.16525759 0.01940805 0.34216824 0.013129891 0.09648467 -0.14122742 0.023829589 0.12623973 -0.016322285 0.007825956 0.07225146 0.026180683 -0.05457466 -0.0047936873 -0.049774595 -0.0492423 0.019778946 -0.118861765 0.11476401 0.025629867 -0.055971175 0.06332287 -0.064615026 -0.14400561 0.015660193 0.10209628 -0.077301756 -0.08460176 0.043288477 0.09386405 -0.059319355 -0.07692909 0.10635938 -0.030510334 0.06500689 0.0044882954 -0.15859453 0.051897794 -0.14660586 -0.04617274 0.13560021 0.14544351 0.24525478 -0.013511485 -0.10274322 -0.112162076 0.020656468 0.10299521 0.00274645 -0.19830996 0.024838187 -0.0563126 0.19429041 -0.010080349 0.05450878 -0.033475753 0.10653157 -0.20867118 -0.078952804
439 0.1808713 0.06351323 -0.0034255865 0.035331354 -0.03250218 -0.32307217 0.004599031 0.10307619 0.093423076 0.115535915 -0.110170715 -0.07718917 0.074263826 -0.11522694 0.18232411 -0.035100095 -0.07443001 0.04070975 -0.045531623 0.06104831 -0.038660806 0.048235305 -0.17426154 0.082964756 0.09636762 -0.04583694 -0.08739407 -0.0831994 -0.057085298 -0.0052752374 0.046414994 -0.025357485 0.11558274 -0.03358405 0.009255658 0.02639146 -0.09261943 -0.08156674 -0.023674326 -0.039749734 -0.028664822 -0.0832395 0.1095827 0.11987613 0.1048289 0.17952189 -0.16348767 -0.0114851985 0.039361157 0.061357718 -0.012139263 0.23002619 -0.23641907 -0.041715976 0.1406981 0.01024717 0.018396426 -0.076965876 0.03671323 0.046609994 -0.01775822 0.041739922 -0.23499459 0.18997465 0.06843516 0.1167689 0.045101006 -0.13979861 0.01395682 -0.25186393 0.10040424 0.18511254 0.28740326 0.122097656 -0.1312104 0.12551977 0.20293136 -0.1056572 0.012436539 -0.106561385 0.06814902 -0.019022595 0.009148049 -0.018828716 -0.045046397 0.13098787 -0.09440866 0.1254702 0.22117376 0.016619759 0.027530666 0.051207177 -0.21098049 0.13104685 -0.029463403 -0.10642398 -0.15826997 0.17277947 0.13560095 -0.27680436 -0.08284088 0.18935613 -0.070866376 0.07000067 -0.08575596 -0.10442904 0.1770471 -0.1274221 0.08526283 0.13010333 0.2689174 0.05677291 -0.04232713 -0.24897397 -0.037969828 -0.04496621 0.29087082 0.0006487498 -0.23004627 0.08147598 -0.10870897 0.107245795 0.058756612 -0.0062546246 0.01061508 0.09454195 -0.4235273 0.01727231
66 0.50633746 0.105883814 0.026799059 0.2023361 -0.053544994 -0.14074707 0.04412567 0.1222124 0.13129489 -0.1788593 0.09463852 -0.16635573 0.2627899 -0.12394616 0.2311273 -0.041181553 -0.045759678 0.23603389 -0.03242321 0.037222583 -0.13347083 0.10724443 -0.30241978 -0.15201351 0.14752844 0.26033807 0.026332585 -0.068226196 -0.157571 0.07177977 0.073327005 0.1365714 0.17834716 -0.025022788 0.195001 -0.07545271 -0.26883188 0.073027536 0.1732697 -0.17401893 -0.041862406 -0.011123263 0.2980588 -0.29598165 -0.12298651 -0.07213258 -0.073871255 0.05905722 0.16525549 -0.07070853 -0.032665692 0.13893147 -0.11883271 0.013944687 -0.17141941 0.013434232 -0.0020144056 0.0043315073 0.087436326 0.049298886 -0.10892792 -0.02311319 -0.27974594 0.28810948 0.34240788 0.046277095 0.2327545 -0.2923116 0.07263059 -0.119154945 0.114498645 0.15068598 0.30847803 0.055299778 -0.05123158 -0.25452295 -0.02152687 -0.10004006 -0.079585634 -0.10045635 0.104036674 0.11062782 -0.42020202 0.05467154 -0.13094844 0.11902122 -0.12451094 0.2943124 0.030389797 -0.15550318 0.09817085 -0.13994865 0.04194331 0.0065376544 0.24512777 -0.20131889 0.04240818 0.28561595 0.092338696 0.16965048 -0.13662547 -0.09069551 0.019608645 0.13631916 -0.008017322 -0.013993567 0.060518336 -0.2482209 -0.028838262 -0.02826023 0.033173338 0.17894454 0.11015756 -0.040834542 -0.047223188 -0.104967326 0.1860454 -0.03932766 -0.24601324 0.06644442 0.08951556 0.14227985 0.08095948 -0.103747495 0.21777678 -0.052676223 -0.19872124 0.07562909
655 0.17218804 0.06385278 -0.16434391 0.07653624 -0.08455835 -0.22531208 -0.055002667 0.118092656 0.26416844 -0.15044469 -0.1177749 0.017610665 0.10173748 -0.13096787 0.100846134 -0.0691755 0.11249726 0.21109398 -0.00036772917 0.032204006 0.030542182 -0.16294897 -0.1423467 0.055862993 -0.06767172 -0.22485073 -0.19730192 -0.0027856866 0.017612124 0.0239378 0.21154313 0.07525047 0.10249612 -0.088852905 0.034476202 -0.04621586 -0.060705446 0.014376902 0.15874228 -0.10345746 0.08918523 0.121261634 0.2076731 0.023799315 0.034051135 0.15368477 -0.20141935 0.098949455 0.13636725 -0.037527002 0.088069804 0.29872572 -0.34424636 -0.22421436 0.27696794 0.13146864 0.15564989 -0.028749358 -0.04515777 0.10533454 -0.09366064 0.12034734 -0.20585684 0.1950021 0.11604558 0.07841828 0.12479431 -0.20069003 -0.1001915 -0.24774873 0.03682334 0.26100037 0.18987644 -0.14354576 0.06059735 0.19020662 0.23465091 -0.11393674 0.13785791 -0.05319497 -0.14878078 0.14532922 0.1146496 0.07236978 -0.104849294 -0.11633632 0.022654157 -0.05398944 0.13236162 -0.17563091 0.0043032607 0.022087868 -0.044176802 0.17769948 0.0053597214 -0.2986275 -0.47673002 0.108918235 0.13509175 -0.13901891 -0.043360084 0.096315786 0.15703705 -0.022937959 -0.18364748 -0.13084011 0.036423113 -0.15057701 0.18355204 0.21471487 0.25451604 0.27477717 -0.06403566 -0.06357717 -0.06816455 -0.024733543 0.050551686 0.05522234 -0.34166458 0.15248834 -0.038947795 0.017690249 -0.024895333 0.1384535 -0.005364613 0.09224821 -0.4011542 -0.23271187
296 0.116080426 0.077275336 -0.14768982 0.003657029 -0.084920704 -0.16216372 -0.034061775 0.08689473 0.17346978 -0.07217527 -0.000997138 0.0023439762 0.04999505 -0.10884993 0.058397714 -0.012540995 0.06375153 0.08676017 -0.020304859 0.051063716 -0.05321951 -0.060784563 -0.12504837 -0.0051095174 -0.041106798 0.018752193 -0.11516658 0.035191096 -0.009312776 -0.04177703 0.13910554 0.07058017 0.13881102 -0.04144757 0.10499217 -0.042705804 -0.025465008 -0.011174884 0.13849413 -0.08808825 0.0568862 0.1078247 0.191219 -0.005694365 0.020339768 0.06468898 -0.14047164 -0.082603164 0.19291379 -0.03503247 -0.04363789 0.18447788 -0.1759513 -0.1214078 0.10388972 0.065122284 0.1597297 0.018519543 -0.021913212 0.09586963 -0.035073586 -0.029404353 -0.21333855 0.10009629 0.14266561 0.10547973 0.12456508 -0.1869575 -0.08742177 -0.14095116 0.054974426 0.28165442 0.1903713 -0.012550926 -0.07086276 0.055169582 0.20252423 -0.06701523 -0.026386958 -0.00910538 -0.12955855 0.06102272 0.042279977 0.040717173 -0.0612031 0.02264027 -0.0013599335 0.08044082 -0.0056992704 -0.15604757 0.06639684 -0.037616167 -0.021523245 0.1424904 0.029849721 -0.1783421 -0.03488719 -0.012997634 0.18025902 -0.10019139 -0.118558004 0.11340985 0.039718684 0.14104365 -0.055866648 -0.11936976 0.02332047 -0.06938994 -0.02620314 0.0125058 0.11287933 0.15319757 0.05613172 -0.04269897 -0.1337485 0.10097303 0.12901922 -0.033331856 -0.14122994 0.1101665 0.026743323 0.0869591 0.06622642 0.083824076 0.028804976 0.10209479 -0.36644715 -0.19266187
571 0.17212021 0.030978285 -0.101307996 0.016752595 -0.0770667 -0.16605546 0.07710678 0.10214281 0.17226738 -0.037256934 0.022579122 0.037181124 -0.027175535 0.005066349 0.030597098 -0.074537925 -0.16403791 0.0546186 -0.006472504 0.0015699841 -0.20573927 -0.059936974 -0.14889254 -0.11238681 -0.07538183 0.02064483 0.02202072 -0.023625914 -0.11891153 -0.13554807 0.1094276 -0.13463625 0.055331934 -0.018204479 0.15619473 -0.061833207 -0.017657746 -0.07172002 0.16556959 -0.04024845 -0.048769135 0.15857783 0.16032098 -0.025944997 0.026545573 0.015215308 -0.2256574 -0.18617068 0.1939273 -0.006678286 -0.032687876 0.21195099 -0.050961304 0.010099782 0.06000214 -0.017387148 0.046389785 0.04751962 0.01042653 0.13294716 -0.03845145 0.014367513 -0.1946576 0.005035079 0.087941736 0.08039965 0.13787314 -0.14321436 -0.10430876 -0.15245156 0.06398049 0.37649462 -0.06372279 0.03722501 -0.11230644 -0.0035430023 0.052349098 -0.025969107 0.043742355 0.0968634 0.028595021 -0.0015420694 -0.019772284 -0.038065273 -0.013950087 0.029749628 -0.15591325 0.07382064 -0.017491387 -0.10829115 0.048112165 -0.07217074 -0.12099824 0.021842118 0.11059656 -0.014717967 -0.027521541 0.08940283 0.073137045 0.016154297 -0.069368504 0.10434689 0.013735549 0.12430765 -0.018612169 -0.22054638 0.01872224 -0.16210066 -0.07063508 0.17221028 0.12453553 0.2990512 0.03912634 -0.117180325 -0.16249043 0.021450156 0.1358268 0.030562617 -0.1677345 -0.03244403 -0.08222051 0.17790796 -0.0132193 0.082465366 -0.006087375 0.10532099 -0.20969363 -0.08850098
493 0.16318199 0.058963314 -0.18628836 0.09180134 -0.1586302 -0.15655637 -0.09543302 0.15355101 0.24720703 -0.3046379 -0.022122148 0.051138062 0.23402585 -0.33256516 0.11608509 -0.14777172 0.3027488 0.04130586 0.065255195 0.04108096 -0.037540693 -0.07601244 -0.21242921 -0.06033455 -0.18402311 -0.005137582 -0.09370302 0.033960782 0.035568733 -0.12507354 0.29001847 0.10683117 0.092085145 -0.064896226 0.06588716 0.00206586 -0.07899483 0.015047093 0.396207 0.008359892 -0.032760438 0.14483996 0.16031048 -0.10711051 -0.026306834 0.16828807 -0.00895499 0.026546622 0.20889953 -0.04952988 0.05036353 0.22628912 -0.08643679 -0.11277697 0.09258297 0.00331517 0.049751528 -0.021297133 -0.033128615 0.11534968 -0.08370217 -0.16656591 -0.06213742 0.19157925 0.31291118 -0.012261721 0.43409067 -0.3435794 -0.17484003 0.1005712 -0.0055607846 0.3452283 0.13899046 -0.12275567 0.09235435 0.092584044 0.047068436 -0.10702614 0.11601248 0.010994563 -0.26593798 0.36404586 0.08411244 0.05498697 -0.086893104 -0.015583956 -0.04834292 0.20277174 -0.038641214 -0.2933291 0.185008 -0.14503725 -0.14945108 0.083317794 0.16837369 -0.35678306 -0.12736411 -0.014264027 0.2724835 0.044057578 -0.12983818 0.116795145 0.06988303 0.019181384 -0.2570847 -0.08272435 -0.13170713 -0.29751867 -0.058095086 -0.10283785 -0.007599873 0.30256137 0.08447289 0.103751935 -0.17693152 0.09783504 0.056423087 0.008025753 -0.04412303 0.2623964 -0.016572738 -0.089151405 -0.036250785 -0.015921813 0.24623376 -0.028065111 -0.32474267 -0.27102527
534 0.21755126 0.03874709 -0.009676318 0.07452044 -0.014785517 -0.31188545 -0.006483804 0.108762115 0.12792882 0.065296374 -0.12016236 -0.08621823 0.079768 -0.10819041 0.17608194 -0.01530949 -0.11316006 0.059307598 -0.031101894 0.037059166 -0.07103247 0.046929173 -0.21389563 0.045062635 0.08394978 -0.048452053 -0.12969393 -0.07347012 -0.07576278 -0.0060689664 0.065781236 -0.01850983 0.09964241 -0.053160932 0.046279803 -0.02671747 -0.11114386 -0.10824828 0.0070994324 -0.07476253 -0.022816395 -0.08604334 0.11023533 0.0776783 0.07753223 0.15055677 -0.18713905 0.0019960208 0.062367473 -0.001251183 0.000864826 0.22846323 -0.21038204 -0.01639617 0.14249985 0.06454469 0.07073436 -0.012189665 0.03509593 0.05724882 -0.014894461 0.04426911 -0.2235974 0.1954088 0.099714175 0.10124898 0.077267 -0.1715358 0.026595427 -0.26479852 0.11734545 0.20635399 0.28569978 0.09545449 -0.12893347 0.08902334 0.17453161 -0.12995021 0.03191619 -0.101118356 0.05359445 0.004611791 -0.042412974 0.015851738 -0.045414634 0.12693393 -0.08750087 0.1418472 0.16396078 -0.037214216 0.025229862 0.030636346 -0.1676363 0.14808017 -0.0033712233 -0.10044961 -0.19583164 0.22298504 0.12303218 -0.19343899 -0.029838266 0.14127278 -0.016747126 0.06767979 -0.09224758 -0.1588554 0.19114737 -0.12624927 0.1413108 0.14270906 0.24709383 0.09344129 -0.01783225 -0.24753134 -0.06762194 -0.06935944 0.24764417 -0.0030821778 -0.26771796 0.07601847 -0.12062911 0.0785136 0.045522448 0.0028586744 0.008616004 0.121527 -0.3501492 -0.0008837021
64 0.14622304 0.10349594 -0.13919996 -0.008160424 -0.08555093 -0.16761449 -0.0060170684 0.08299921 0.15202627 -0.08399932 0.031445142 0.006646382 0.10532943 -0.13000281 0.08141309 -0.06657302 0.09412303 0.09514576 -0.022167917 0.07470317 -0.051816057 -0.06608054 -0.110034 -0.015588466 -0.014656479 0.057963245 -0.05332568 -0.0011275231 -0.010529779 -0.055377945 0.14132294 0.047995526 0.14533629 -0.022464072 0.08086297 -0.01271553 -0.022719637 0.0021807775 0.15637885 -0.063674055 0.020933473 0.10865212 0.20434539 -0.017238714 0.017164981 0.07662257 -0.09815878 -0.082954414 0.18870479 0.024090474 -0.03666883 0.18552303 -0.19104855 -0.09187703 0.055085637 -0.016771654 0.077409506 -0.027464453 0.00073837664 0.09817724 -0.05702655 -0.009399825 -0.22399105 0.12806776 0.15242532 0.10775878 0.120851725 -0.19908278 -0.09077446 -0.09535827 0.012516335 0.2715771 0.17539671 0.029986108 -0.071620815 0.040495344 0.17019317 -0.053160474 -0.021724269 0.0033841212 -0.110966556 0.053671703 0.018471682 0.009264838 -0.0726569 0.017516281 -0.014468056 0.14051415 0.009330319 -0.11412366 0.09622108 -0.06358061 -0.07749884 0.083690956 0.0674951 -0.21442433 -0.059815962 -0.023491787 0.17680793 -0.09828569 -0.12842561 0.10872264 -0.014977935 0.06942837 -0.04841176 -0.068952404 0.019271849 -0.12336826 -0.042459853 -0.0051021003 0.10699327 0.15293881 0.024353374 -0.021936085 -0.08623389 0.07581764 0.105031155 -0.035652943 -0.15690422 0.14240049 0.026385501 0.105569184 0.033200774 0.039171733 0.046400353 0.067668445 -0.32685328 -0.1684675
610 0.20770073 -0.11755844 -0.07822292 0.11013611 -0.17632851 -0.1857456 0.027634272 0.2278784 0.30995396 -0.08364289 0.08914834 0.083706304 -0.13642958 0.07553017 0.043679643 -0.023591809 -0.39492247 0.033678744 -0.05257406 -0.038610842 -0.32499015 -0.0240848 -0.29795143 -0.15785824 -0.27471444 0.031505033 -0.053289536 0.14845034 -0.17736505 -0.23910818 0.16587225 -0.096412405 0.056467153 -0.056973144 0.22122943 -0.09450524 0.000813653 -0.08593709 0.33262601 -0.070390254 -0.09578314 0.23790681 0.16413036 -0.2144798 -0.056888465 -0.057359323 -0.33638585 -0.2324048 0.2707337 -0.20013289 -0.070030764 0.22828639 0.16382761 0.09164711 0.07228405 0.12373194 0.23575747 0.15588158 -0.041770343 0.18307343 0.0742151 -0.08408626 -0.19122824 -0.03718604 0.13886306 0.014784068 0.2926585 -0.2665145 -0.09770957 -0.20334598 0.2194407 0.47902307 -0.1981809 -0.13246058 -0.042577617 -0.10763042 -0.0740935 -0.09734439 0.12838474 0.15338142 0.079641975 0.13317212 -0.09513677 0.00226105 0.102369994 0.08449081 -0.22173445 0.004996389 -0.18680072 -0.2971625 0.07510992 -0.05216204 -0.01580189 0.08178042 0.039303403 0.26611695 0.22035275 0.1682582 0.0009181659 0.2802953 -0.08407744 0.056640916 0.16816904 0.31639102 0.025094677 -0.38333523 -0.15161002 -0.18007767 -0.14416769 0.20425108 0.061016504 0.38479972 0.24602874 -0.086603366 -0.21243344 0.05135273 0.17915377 0.08109041 0.041803725 -0.1962117 -0.106490985 0.15041366 -0.018172076 0.25629625 0.0047777602 0.11435903 -0.14756083 -0.14107206
82 0.17675702 -0.023203902 -0.09362404 0.050995063 -0.1497934 -0.16976494 -0.036033083 0.1884283 0.2205199 -0.04592946 0.0019391454 0.03633516 -0.021897051 -0.042119663 0.058267742 -0.0059969258 -0.11826153 0.06742074 -0.046165846 0.030379856 -0.12963809 -0.0056044627 -0.21599776 -0.014109171 -0.1312371 0.0016699544 -0.1025135 0.10509202 -0.048896022 -0.11238027 0.16653253 0.071752325 0.15885602 -0.05442156 0.13404128 -0.031169761 -0.055989787 -0.0025826823 0.22196655 -0.06614312 0.013670057 0.13846275 0.1646892 -0.109937534 -0.0023318138 0.023100222 -0.22442876 -0.11173967 0.21852657 -0.1164291 -0.087627485 0.20954387 -0.045123335 -0.097947255 0.13607885 0.10887095 0.2152039 0.023623778 -0.022085493 0.11466997 0.012983065 -0.08893292 -0.19200362 0.07252074 0.1387623 0.053575303 0.21701078 -0.20729356 -0.10430615 -0.17701465 0.1633952 0.3321749 0.09352861 -0.11712209 -0.028283942 0.017941058 0.120510496 -0.08221217 0.021532578 0.0295737 -0.048403714 0.16955708 0.028124355 0.01567446 0.018763814 0.041619796 -0.073288165 -0.02729341 0.014515827 -0.21051456 0.03418849 -0.0038383496 -0.029355977 0.19037554 -0.008516286 0.028892558 0.08836841 0.051749848 0.09394216 0.051366806 -0.10999104 0.08485582 0.116121665 0.22437216 -0.062050376 -0.15729281 -0.0980242 -0.055968326 -0.08245126 0.054468032 0.08337927 0.17393923 0.14707166 -0.04438825 -0.1322767 0.08593638 0.17408113 0.04344794 0.022432111 -0.033066038 -0.009973564 0.04815583 0.0509127 0.16608948 0.0365406 0.033901762 -0.2763463 -0.14198773
54 0.20271225 0.039883442 -0.10399401 0.02112161 -0.09054109 -0.22080879 -0.015597001 0.1166948 0.148681 -0.02351275 0.038939424 0.008308718 0.094874054 -0.06707961 0.08773071 -0.04535913 -0.022571053 0.10671575 -0.056758054 0.083804004 -0.07635014 -0.0243201 -0.13003394 0.008129685 0.0118382815 0.06270029 -0.02731152 0.007810984 -0.02859097 -0.040220104 0.1440274 -0.00038205163 0.1724476 -0.027390392 0.08007917 -0.0140972175 -0.020808997 0.012939531 0.12619658 -0.07737563 -0.0089980075 0.09906059 0.22013804 -0.016035799 0.005199356 0.07541324 -0.142681 -0.076254636 0.15911767 0.020553512 -0.072325565 0.2226123 -0.15941839 -0.0789477 0.05354003 -0.001894024 0.08553728 -0.02761824 0.010708068 0.079612784 -0.044220656 0.021781316 -0.24794199 0.14664273 0.1283897 0.10350857 0.1259107 -0.19116808 -0.06215075 -0.14307097 0.067419805 0.2529078 0.14382854 0.045473598 -0.07268053 0.02780119 0.17498258 -0.041574553 0.005367325 -0.0106774615 -0.021746358 0.047791548 -0.034074306 -0.002390809 -0.05214971 0.024689091 -0.049736306 0.10196417 0.034318294 -0.08620943 0.056948632 -0.04048552 -0.07664314 0.09842467 0.055980895 -0.11938906 -0.03427219 0.029375536 0.11939661 -0.08476514 -0.121999234 0.11236147 0.023685895 0.10907052 -0.02280298 -0.08544224 0.020598546 -0.110452704 -0.039828405 0.046267092 0.15182504 0.14193243 0.021088265 -0.083299674 -0.047203757 0.034643464 0.11959954 -0.018101603 -0.12785001 0.07078023 -0.0038102465 0.122548155 0.056394275 0.03855127 0.032518145 0.04439984 -0.2904967 -0.10062077
285 0.16329476 -0.0037308994 -0.06987638 0.009666276 -0.086493574 -0.19795683 0.04153278 0.13184762 0.17325786 0.01772381 -0.03996476 0.034829386 -0.04566889 -0.012994931 0.0483929 -0.059894145 -0.14295928 0.045372415 -0.016375726 0.02102716 -0.16566189 -0.021820562 -0.16298789 -0.04030393 -0.07537309 -0.040477924 -0.018541466 -0.0021208155 -0.0952653 -0.101241075 0.10398252 -0.08591348 0.09330894 -0.03157365 0.12575245 -0.03312122 -0.056785963 -0.05422075 0.1293913 -0.039383065 -0.027413564 0.13329098 0.14176363 0.022147391 0.05052287 0.06770209 -0.24858794 -0.14253874 0.15013723 -0.026347546 -0.04463365 0.25300354 -0.080955915 -0.06910621 0.13443224 0.01592446 0.07738884 0.0021000137 -0.0003397938 0.116302796 -0.022194674 -0.0077017653 -0.17633523 0.038260207 0.07990801 0.07125715 0.16102077 -0.13193253 -0.10454749 -0.19137733 0.11357259 0.3462855 0.0052399538 0.0065658875 -0.086045526 0.049856074 0.11344487 -0.02690981 0.051917393 0.055159986 0.036012948 0.049877953 0.049044203 -0.04263923 -0.022853198 0.030984871 -0.15942076 -0.006172799 0.07415449 -0.117463306 0.0039002248 -0.02166832 -0.13455634 0.09450786 0.042850967 -0.003038693 -0.041728247 0.09295676 0.07301737 -0.0426254 -0.074179076 0.13287388 0.04970875 0.15407929 -0.06828785 -0.17793031 -0.002882339 -0.11897789 -0.047839247 0.18388188 0.14771797 0.23368128 0.023330858 -0.13273929 -0.15329352 0.03400709 0.17719835 0.053832524 -0.10470337 -0.03866303 -0.10639596 0.118166365 0.0025924577 0.10244389 -0.0047109053 0.07478995 -0.26150873 -0.058249414
130 0.16961206 0.022817155 -0.09071833 0.036849387 -0.08412158 -0.21745248 -0.02681738 0.12237783 0.16606179 -0.032762237 -0.0468537 0.00087560137 0.053245515 -0.09252075 0.0815904 -0.03779455 -0.0040716683 0.07874288 -0.020084282 0.035336394 -0.067638315 -0.02024623 -0.1651382 0.00720474 -0.030093018 -0.04018228 -0.086688824 -0.0031235507 -0.02813956 -0.040310375 0.14176723 0.011837002 0.117856935 -0.034206137 0.07472877 -0.0338411 -0.050262894 -0.032052413 0.12474026 -0.054078337 0.007165026 0.065458976 0.14553922 0.007983476 0.033421498 0.101027235 -0.16630232 -0.04500885 0.13294564 -0.02518253 -0.02720693 0.22275904 -0.154445 -0.091628626 0.12917362 0.057518035 0.105455585 -0.010021202 -0.008774652 0.08254381 -0.03126728 -0.006517718 -0.18482456 0.12867716 0.120742954 0.06473984 0.15628181 -0.17827387 -0.0789477 -0.15486814 0.0874248 0.27364686 0.14673735 -0.00730822 -0.04255619 0.06979761 0.15466408 -0.064172596 0.03664904 -0.017975124 -0.0493927 0.092099465 0.020854494 0.020906385 -0.05011655 0.026228577 -0.06570957 0.053785827 0.070511475 -0.12250781 0.029437538 -0.015956808 -0.09140796 0.13396083 0.037247095 -0.12841327 -0.094570175 0.07734414 0.13729508 -0.09649831 -0.09969657 0.12907173 0.050549686 0.13350776 -0.105726615 -0.12650459 0.033227127 -0.11829091 -0.004646902 0.09311643 0.16788854 0.18121299 0.03454623 -0.10602895 -0.113581516 0.035170637 0.17024326 0.017347908 -0.14553821 0.066800974 -0.0534437 0.06820868 0.04555006 0.069341406 0.04718591 0.05887974 -0.354194 -0.11028414
22 0.16731991 -0.0053847306 -0.06913616 0.033212703 -0.06891974 -0.21521164 0.035007756 0.1259089 0.1724152 0.001809018 -0.031959254 0.031680964 -0.027567185 -0.024955282 0.047693595 -0.052181758 -0.13801347 0.039837353 -0.01211033 0.017246824 -0.16393024 -0.019754432 -0.17487967 -0.050115995 -0.05345948 -0.028267328 -0.02614552 -0.021167614 -0.10029587 -0.10897017 0.105133235 -0.101508774 0.07608164 -0.031306975 0.12034831 -0.046297286 -0.03599799 -0.07514072 0.12527551 -0.04304753 -0.0365136 0.107198425 0.12985733 0.018849604 0.047725488 0.06567506 -0.23103273 -0.11954214 0.13432354 -0.028125953 -0.027438264 0.2380705 -0.07541856 -0.027038766 0.10632779 0.026246054 0.077997945 0.016893558 0.009181586 0.1050532 -0.017522851 0.0152234705 -0.18408817 0.0546919 0.08636614 0.0657017 0.14336295 -0.14213543 -0.087328106 -0.17904876 0.10439276 0.33233243 0.011311262 0.024004556 -0.09057424 0.03794711 0.09319555 -0.039273202 0.0553511 0.03922304 0.040347222 0.028819196 0.011530045 -0.023552964 -0.023821296 0.039844036 -0.15832275 0.039553296 0.04834277 -0.10894339 0.019275637 -0.025025496 -0.1436467 0.08028055 0.059440255 -0.019143078 -0.055440936 0.12798247 0.08479797 -0.04963326 -0.074262194 0.13726541 0.049313776 0.15402156 -0.063386366 -0.20140484 0.03752174 -0.14459021 -0.030032452 0.18581079 0.16773292 0.24715365 0.030115986 -0.15834731 -0.15399824 0.018795785 0.19688866 0.032178443 -0.15558527 -0.017138112 -0.10640525 0.12804705 0.0031175413 0.07592502 0.0034256098 0.08641579 -0.28499895 -0.058214054
242 0.1488797 0.0036659183 -0.11678283 0.025015987 -0.11422783 -0.21245614 -0.015823834 0.12577549 0.20742023 -0.05116062 -0.02742974 0.061865337 0.0031692153 -0.053803314 0.03078862 -0.04512012 -0.04697123 0.06630137 -0.02113783 0.03770194 -0.12374328 -0.04875561 -0.16357091 -0.027058125 -0.08208218 -0.02764949 -0.060749304 0.025473164 -0.047112223 -0.09111487 0.15899256 -0.049523275 0.10390039 -0.036394946 0.109127104 -0.047454447 -0.0013272439 -0.042232256 0.16279064 -0.057149254 -0.015289166 0.14945295 0.15520227 0.008035478 0.035201684 0.07758622 -0.21427566 -0.099326044 0.16379625 -0.03776718 -0.044314887 0.25042832 -0.09467818 -0.077850685 0.120673545 0.05749338 0.13667111 0.021990225 -0.015179029 0.10831325 -0.020053256 -0.007889157 -0.1878115 0.07720268 0.11584808 0.06332714 0.17159657 -0.17139119 -0.109246224 -0.14970377 0.090744935 0.35908574 0.038718034 -0.030495461 -0.051846743 0.05294908 0.14172676 -0.040950213 0.060769185 0.02833341 -0.048671838 0.08854943 0.04311622 0.016517093 -0.03377277 0.012140482 -0.10860273 0.02992446 0.013433909 -0.15719193 0.042363375 -0.04138293 -0.097583495 0.10922318 0.05031325 -0.08526414 -0.06005522 0.04205587 0.09326217 -0.03956639 -0.0690596 0.11472245 0.08796103 0.1444851 -0.07879754 -0.17791958 -0.0061973473 -0.101681754 -0.025415357 0.12636709 0.13478273 0.22844233 0.04384613 -0.08203638 -0.15171067 0.061931584 0.11832657 0.013604221 -0.11241606 0.021689693 -0.06380339 0.06941035 0.013306404 0.083953716 0.012908292 0.07975428 -0.26558468 -0.14331682
17 0.1838082 0.05902822 -0.1038541 0.037285462 -0.058945253 -0.20661743 0.030918775 0.095454134 0.16097036 -0.07256137 -0.0028647024 -0.010999541 0.08806407 -0.10311702 0.09280187 -0.07775908 -0.019992026 0.079598285 -0.012329789 0.034102984 -0.106482506 -0.055364065 -0.1565692 -0.053201564 -0.020002048 0.010922812 -0.04268824 -0.036923293 -0.05148254 -0.06959335 0.12449325 -0.034575034 0.07831928 -0.030179687 0.082053214 -0.049716596 -0.046121 -0.049077027 0.14629154 -0.056335345 -0.019507332 0.079388455 0.17277656 -0.012063784 0.02161726 0.07412044 -0.14950533 -0.07361135 0.15331563 0.0016946879 0.0071929367 0.19907667 -0.14633772 -0.0209341 0.06572354 -0.0017851708 0.046792366 0.004610571 0.015210679 0.09545849 -0.04919643 0.036038797 -0.19466363 0.114329 0.13540699 0.08889581 0.13332558 -0.19341958 -0.07048247 -0.12674181 0.03297633 0.27560315 0.107263826 0.04355222 -0.088641256 0.029009735 0.09077413 -0.07102541 0.034048274 0.019293858 -0.034919146 0.030255454 -0.03454894 0.0018679772 -0.06024427 0.029760936 -0.0756615 0.14421232 0.019556087 -0.10057369 0.07385085 -0.04808124 -0.121635295 0.05443166 0.09365897 -0.1493373 -0.13903189 0.09281551 0.11916295 -0.04752247 -0.06409036 0.09682293 0.013718081 0.04134073 -0.065002345 -0.14516588 0.07239816 -0.17464216 0.02379519 0.09956562 0.1437426 0.2173358 0.0062778112 -0.09368479 -0.096972555 -0.004693663 0.10936673 -0.0065104547 -0.22263516 0.09100929 -0.044860788 0.10936662 -0.009061902 0.019795526 0.03138795 0.09483496 -0.24957298 -0.11114931
216 0.39584053 -0.03271901 0.019066628 0.1762861 -0.10456799 -0.17396565 0.061208203 0.16430533 0.20882937 -0.11165564 0.07430575 -0.057062466 0.048801173 0.0361508 0.12293957 -0.014274635 -0.30391267 0.17201723 -0.044275366 -0.040615816 -0.25487968 0.07438627 -0.33996704 -0.18292344 -0.024564082 0.14748162 -0.00022117612 0.024619495 -0.21589182 -0.053324968 0.07727235 -0.0021059357 0.08224184 -0.02653039 0.23009719 -0.11341229 -0.15881225 -0.03957569 0.20749068 -0.14877018 -0.08499017 0.07282947 0.19902648 -0.2752554 -0.09042651 -0.10958444 -0.22152734 -0.06932979 0.16493337 -0.1723067 -0.051877886 0.15655734 0.06596234 0.09594647 -0.065608956 0.11171099 0.11933894 0.10942779 0.043706235 0.0814646 0.0116046 -0.030165363 -0.21701169 0.11734357 0.22380391 0.0030382494 0.22592665 -0.24240002 0.028907714 -0.18401639 0.18273546 0.29713386 0.041024443 -0.03575853 -0.056159537 -0.23836112 -0.0932386 -0.09087136 0.013801005 0.005324066 0.15234466 0.089495674 -0.335885 0.051613476 -0.004398642 0.11298349 -0.2134706 0.13863087 -0.075808994 -0.21755677 0.06395511 -0.08773682 0.038018 0.03140502 0.16434045 0.089634 0.14279991 0.31161955 0.0024721122 0.25079635 -0.0756832 -0.043652397 0.12308863 0.26469517 0.032087654 -0.22286558 -0.0018003436 -0.21419372 -0.06867871 0.14419463 0.0635447 0.2954711 0.18803981 -0.11264684 -0.14066155 -0.04376358 0.21620877 0.022310745 -0.14629726 -0.12599361 -0.030744858 0.15962882 0.02556283 0.06090136 0.10371779 0.04560047 -0.143007 0.044274658
132 0.1784657 0.05546547 -0.07503466 0.014380388 -0.048399847 -0.23093726 -0.012607678 0.08646696 0.12922916 -0.0040880702 -0.06394064 -0.018036608 0.0880651 -0.10955167 0.09637535 -0.045224834 0.014776496 0.08705756 -0.030566353 0.05919964 -0.037874207 -0.010403626 -0.14455277 0.02747356 0.04617776 -0.01888839 -0.0766301 -0.045368493 -0.0021768422 -0.0069520734 0.11535202 0.0076903696 0.13165718 -0.023061555 0.04862784 -0.023968138 -0.057205487 -0.035916846 0.057754993 -0.05639809 0.014995383 0.010113881 0.14628775 0.056030836 0.05829879 0.110725366 -0.14507774 -0.021579955 0.09872303 0.015993224 -0.024321375 0.20643857 -0.20624971 -0.07688482 0.097041145 0.018396934 0.076694384 -0.031249182 0.012836955 0.06444981 -0.03480156 0.04130733 -0.20078312 0.16332097 0.10811848 0.093044035 0.09616166 -0.1695596 -0.056981 -0.14433135 0.059805557 0.22831398 0.2136151 0.05470002 -0.08075017 0.06939183 0.16673917 -0.07024877 0.0024669266 -0.036106396 -0.03239057 0.025099305 -0.0038685142 0.01004095 -0.07788449 0.037704885 -0.0482058 0.1037761 0.11421201 -0.0601369 0.03646319 -0.016994609 -0.12163601 0.13170949 0.03807928 -0.17278402 -0.12314698 0.0857209 0.1517636 -0.17207101 -0.10075831 0.14131473 0.009271224 0.10132126 -0.094940186 -0.07125354 0.09896614 -0.1253268 0.018579852 0.07852989 0.2011582 0.12997022 -0.0014706452 -0.140931 -0.086525515 0.020548591 0.20091489 -0.012285084 -0.20716394 0.108749144 -0.040984374 0.10096001 0.05458254 0.023224633 0.04394086 0.064346954 -0.3914529 -0.07762028
181 0.17190315 0.02429418 -0.10862595 0.013846912 -0.040900357 -0.124863975 -0.0637585 0.1079666 0.16665597 -0.032043785 -0.07734965 0.021806622 0.041141164 -0.1245336 0.087019674 -0.03508155 0.01734529 0.038678147 -0.003116349 0.05626964 -0.02617141 0.015410703 -0.15857051 0.09604606 -0.05915132 -0.008212207 -0.14992668 0.019339139 0.017262528 0.009778664 0.12418384 0.1049983 0.18107443 -0.080778666 0.110276006 0.009208555 -0.11033226 -0.004582088 0.109437466 -0.09408699 0.06578648 0.106608294 0.14267394 0.05223891 0.065134555 0.07466893 -0.1839275 -0.073200375 0.22116785 -0.08443888 -0.08263662 0.21699466 -0.21245559 -0.16539267 0.12649974 0.017032422 0.15620093 0.015822874 -0.029857263 0.104769945 -0.03549554 -0.039052367 -0.16640608 0.10287832 0.19838546 0.10924516 0.16579483 -0.20759983 -0.107099794 -0.14240853 0.096329585 0.26375782 0.27765268 0.013656967 -0.07543191 0.07978285 0.28862458 -0.07555458 -0.025132908 -0.021626621 -0.09090804 0.15655202 0.08258541 0.012960503 -0.05304966 0.03928423 -0.019084642 0.05445782 0.09898325 -0.19167767 0.044708036 -0.025266321 -0.044720303 0.22477855 -0.040818762 -0.109782 -0.024655344 0.033000343 0.2437591 -0.1757207 -0.13170828 0.14264318 0.017173022 0.17757107 -0.12876515 -0.02064033 0.0036112026 -0.040851958 0.0010179508 -0.04345956 0.076569214 0.09975713 0.0709547 -0.044817638 -0.1789524 0.11875573 0.24123043 -0.00698606 -0.020974223 0.11764358 -0.031541273 0.036570854 0.0528729 0.09892905 0.075360574 0.067526504 -0.41174415 -0.10578624
499 0.20840459 0.07240032 -0.07098097 0.013526654 -0.083643444 -0.21974789 0.005006356 0.10799864 0.13199392 -0.0022100592 -0.0024455194 -0.013819535 0.097978696 -0.08484034 0.11802881 -0.06297064 -0.0112055 0.09913599 -0.051416505 0.06927654 -0.076987326 -0.0034946357 -0.15926053 0.004590464 0.03981963 0.052334137 -0.024031594 -0.027053725 -0.03834969 -0.024112003 0.109835654 0.008374299 0.15683877 -0.014859814 0.069312245 -0.0032386747 -0.062816076 -0.006574282 0.09583265 -0.05806176 -0.008307985 0.04944283 0.18516345 0.0044974117 0.030285666 0.08708252 -0.14116639 -0.05902694 0.1323038 0.0351269 -0.055937085 0.2034983 -0.1704062 -0.06023455 0.04551286 -0.011045499 0.0595414 -0.042569704 0.0202923 0.07167879 -0.037614197 0.012756496 -0.232156 0.15580806 0.119858384 0.09506682 0.11061143 -0.17989996 -0.057536844 -0.15133189 0.06038173 0.2393635 0.18371664 0.0648061 -0.09591163 0.024019357 0.15535995 -0.048792124 -0.009985383 -0.027344504 3.4233206e-05 0.024685007 -0.028723186 -0.011851943 -0.053882185 0.05931023 -0.06807928 0.1211277 0.08331621 -0.06343704 0.05807123 -0.03508087 -0.105069704 0.09738899 0.05055418 -0.13812758 -0.05711278 0.046280406 0.110043675 -0.10776767 -0.09269372 0.09390125 -0.014004196 0.07320433 -0.03649449 -0.0516549 0.05646009 -0.1070826 -0.0119939735 0.038597092 0.13187507 0.10326671 0.011301903 -0.08462457 -0.044917636 0.022560196 0.13054101 -0.016258122 -0.14337346 0.07691758 -0.0094256075 0.09856297 0.041178726 0.019031033 0.027662551 0.042639192 -0.270914 -0.061891727
516 0.27901557 -0.044927046 -0.04123952 0.10487311 -0.1317388 -0.18126255 0.042610843 0.17568482 0.2330288 -0.07134268 0.071815856 0.022707587 -0.013253607 0.049044155 0.0723436 -0.044612013 -0.27941552 0.113621585 -0.045087952 -0.027803132 -0.2633704 0.0095285 -0.26696867 -0.14010556 -0.0988978 0.084379934 -0.006431492 0.05847204 -0.17406838 -0.12692045 0.11602055 -0.058123335 0.08183133 -0.03389474 0.19879778 -0.08700447 -0.06866838 -0.061943978 0.23156936 -0.099795625 -0.07904446 0.15636961 0.17899852 -0.1896675 -0.050159838 -0.044200618 -0.250621 -0.14033656 0.19260514 -0.12850173 -0.064286105 0.20137279 0.06463836 0.063422576 0.015684135 0.07651507 0.14368302 0.0942813 0.0138183 0.11908361 0.021427784 -0.033043772 -0.20805602 0.045189455 0.15929249 0.028222188 0.2150985 -0.21778294 -0.04691975 -0.18305969 0.1565039 0.37283027 -0.06296573 -0.056584477 -0.06331361 -0.1318718 -0.03481268 -0.06216939 0.06297755 0.06785794 0.09271943 0.0889381 -0.1678651 0.021816062 0.02931419 0.06649324 -0.19640417 0.06893424 -0.08051392 -0.21518862 0.068848446 -0.06687691 -0.030647907 0.041495066 0.109007895 0.11864872 0.124245405 0.19536383 0.0049953633 0.18775831 -0.063229896 0.018304681 0.1238318 0.23536594 0.027063932 -0.25874963 -0.052298445 -0.1818797 -0.0887626 0.16324322 0.07089394 0.31121513 0.15519416 -0.10199394 -0.14969178 0.014527337 0.16641986 0.03133447 -0.08492583 -0.12044346 -0.062466227 0.1474444 -0.0016927937 0.111903735 0.034378935 0.06661528 -0.13691746 -0.04525748
12 0.073441565 0.03288196 -0.09023624 -0.059077784 -0.01008785 -0.19009857 0.113295734 0.08419306 0.12503259 0.09149147 -0.06377427 0.05466813 -0.11170616 0.0057239532 0.03179938 -0.059059273 -0.13903499 0.00805956 0.030735215 0.03632262 -0.19316672 -0.06294945 -0.054671478 -0.045515113 -0.05235571 -0.10561509 0.03333117 -0.07348911 -0.12704869 -0.13675888 0.03877396 -0.20665228 0.081986554 -0.036760464 0.12818815 -0.040212184 -0.039007533 -0.076197065 0.052994043 -0.017623473 -0.014371786 0.16862506 0.16509272 0.16218337 0.075883985 0.11746906 -0.30608517 -0.19853453 0.11850535 0.05708656 -0.0059076385 0.30520195 -0.17838965 -0.111272946 0.20678109 -0.04525823 0.01369433 -0.020386077 0.011534794 0.13901173 -0.058312144 0.085875146 -0.19085227 -0.03726145 0.001529679 0.12481862 0.08254526 -0.050574042 -0.14042279 -0.24888863 0.080784775 0.34067664 -0.05378304 0.08557778 -0.16104853 0.15354821 0.18419321 0.029633079 0.036351696 0.10112585 0.08251191 -0.07825274 0.180398 -0.11538396 -0.07462431 -0.008904213 -0.19423585 -0.06969771 0.14712805 -0.044740874 -0.06827267 0.0008829743 -0.2087752 0.05140199 0.033439856 -0.02536973 -0.14641884 0.0864817 0.096515395 -0.1792076 -0.08646203 0.21727583 0.0084209815 0.10925417 -0.08729485 -0.20391518 0.051763352 -0.13758828 -0.018629264 0.320994 0.22414474 0.25782007 -0.08974142 -0.21272539 -0.19727561 0.016092565 0.20738696 0.055152744 -0.21424787 -0.029969914 -0.17689851 0.20811473 -0.037941378 0.11287537 -0.073947765 0.11212232 -0.35136268 -0.03282999
159 0.29936838 0.13485661 0.05809524 -0.11337413 -0.21309485 -0.18286781 0.023577902 0.21879083 0.03455645 0.27327418 0.13014215 -0.015029523 0.021828542 -0.008307654 0.23198768 -0.068645604 -0.1021653 0.095263444 -0.18795593 0.2052865 -0.101854116 0.2040826 -0.18498373 0.15395825 0.10276762 0.28963336 0.15327002 0.066252515 -0.11623872 0.0068309354 -0.00044178855 0.14290598 0.43818098 0.080726184 0.13549182 0.1985461 -0.20915835 0.1674356 0.046233144 -0.025357718 -0.016048947 0.1049224 0.30344734 -0.019811532 0.07927788 0.077406205 -0.16488437 -0.26087463 0.1463556 0.13650225 -0.31702337 0.24201228 -0.17346267 -0.21828438 -0.0408627 -0.1904273 0.020064408 -0.271954 0.04154833 0.07107948 -0.010073612 -0.20759933 -0.4094896 0.15227984 0.16727519 0.18338437 0.11833826 -0.1809237 -0.084860556 -0.24891028 0.18089466 0.23703448 0.3546175 0.14504182 -0.1370212 -0.030228347 0.33055624 0.03393493 -0.21247116 -0.03759798 0.22198683 0.062197108 0.014619335 -0.17003039 -0.0029434669 0.2358335 -0.20191392 0.023266612 0.30731302 0.014431821 0.04328612 0.0067465054 -0.12807547 0.16603264 -0.09807992 0.07306004 0.54072094 -0.13146462 0.12705988 -0.26101714 -0.35845008 0.17219296 -0.20819496 0.3236865 0.13391155 0.23338202 -0.14838508 -0.025179623 -0.40391687 -0.13632767 0.041809317 -0.13771369 0.08869547 -0.056852326 0.014987422 0.19165371 0.42029694 -0.019114254 0.26792163 -0.08927151 0.10025685 0.21118087 0.19581068 0.069822356 0.07610168 -0.13131943 -0.46287638 0.14136288
223 0.21187265 0.02899878 -0.04837984 0.029158248 -0.065154046 -0.245011 0.018180234 0.11164646 0.13977326 0.031030262 -0.036059182 -0.02687816 0.049877588 -0.057500836 0.11023034 -0.035089232 -0.08815662 0.0897511 -0.0559071 0.053155877 -0.082858145 0.005905684 -0.1820152 0.009148747 0.039442595 0.004843147 -0.05505105 -0.021407943 -0.043159194 -0.025060488 0.091120586 -0.0065304646 0.12795666 -0.015444391 0.062293515 -0.03637061 -0.06059672 -0.047802377 0.06558086 -0.06883211 -0.0012024062 0.014738118 0.15505125 0.012086996 0.04452438 0.07214938 -0.18131822 -0.051224235 0.09880449 -0.0003028292 -0.037258282 0.20578349 -0.16540892 -0.03810355 0.08345541 0.032193232 0.08766285 -0.02837465 0.020067398 0.059395872 -0.013855899 0.04264779 -0.22448686 0.14656906 0.09812912 0.08529166 0.08360271 -0.16353983 -0.03412243 -0.18526827 0.09576459 0.23972476 0.17721461 0.058292974 -0.10421501 0.022739358 0.12866382 -0.074167065 0.008113516 -0.020963414 0.027740307 -0.00010676864 -0.054340426 -0.0051495847 -0.048077762 0.06789984 -0.082354955 0.08818436 0.09440399 -0.05689579 0.024911754 -0.00013181832 -0.11292469 0.12345856 0.030440323 -0.082750015 -0.06439537 0.12148138 0.09967667 -0.11957813 -0.09387078 0.12195828 0.020365277 0.13051473 -0.046225443 -0.10489776 0.09262936 -0.11510148 0.0017422433 0.1128414 0.20785618 0.13486543 0.02200625 -0.1578949 -0.06656393 -0.00070172385 0.21425836 0.0070500704 -0.1887183 0.042133935 -0.04176258 0.12940809 0.04707811 0.042541638 0.010094228 0.06906172 -0.34641275 -0.037980396
918 0.10102705 0.42776373 -0.41949135 -0.30601603 -0.090828374 -0.32328746 0.23117188 -0.009241934 0.13222504 -0.07130844 0.33994842 0.13480394 0.26336187 -0.20595928 0.10544629 -0.38813126 0.23476252 0.069516964 -0.09271301 0.25725833 -0.21341383 -0.3451596 0.09860135 -0.11508934 0.10161927 0.33545384 0.21288273 -0.1912153 -0.03433623 -0.31050226 0.21594691 -0.3262368 0.25542068 0.07137144 0.07091617 0.053576276 0.24491686 -0.05969552 0.26205614 0.06508225 -0.064851195 0.34973642 0.4777587 0.21116772 0.13938454 0.2025438 -0.06029884 -0.52357703 0.4528233 0.4777024 -0.06442594 0.31686348 -0.45841983 0.06372295 -0.12055471 -0.5232277 -0.24531452 -0.12725456 0.10689149 0.2445704 -0.23299953 0.19374944 -0.5784952 0.071231976 0.1130007 0.44260535 -0.09063171 -0.30078715 -0.27439767 -0.072684065 -0.35994688 0.59054136 0.045237772 0.49906385 -0.4240248 0.16179192 0.31876272 0.049541384 -0.12107164 0.2610939 -0.13893154 -0.33813292 0.12528726 -0.21466538 -0.13452514 0.008283767 0.007948676 0.5784284 -0.103803106 0.14616565 0.39449212 -0.25565827 -0.4835654 -0.20559128 0.2648605 -0.48023966 -0.19816169 -0.36952913 0.35944435 -0.41129687 -0.25098637 0.30847633 -0.44282418 -0.27505198 0.15245798 -0.099891394 0.17088339 -0.42517787 -0.20859425 -0.05865181 0.2295329 0.3481204 -0.19862409 -0.04840375 -0.009116914 0.13861898 -0.042933617 -0.20138273 -0.50743455 0.4266778 0.07004905 0.53330183 -0.071720004 -0.07955557 -0.109612934 0.2610924 -0.41343004 -0.35683474
225 0.15503785 0.035940297 -0.103310354 -0.0028394128 -0.08772034 -0.2089235 0.058090277 0.11756623 0.17360088 -0.0001209616 0.012296012 0.04685869 -0.017560916 -0.02003721 0.06201286 -0.074941084 -0.12787303 0.059495855 -0.024597703 0.03883538 -0.17042361 -0.059115633 -0.14566788 -0.046598025 -0.069795296 -0.0006641478 -0.006303337 -0.0034720765 -0.093161374 -0.120498344 0.10637789 -0.09450159 0.09515179 -0.024946889 0.1142739 -0.032828275 -0.010613398 -0.061959453 0.14669201 -0.04184828 -0.033713914 0.14871651 0.16625313 0.013965723 0.042571448 0.064057425 -0.22582896 -0.16560085 0.18122649 0.0049014837 -0.042299747 0.23231342 -0.10563652 -0.03137887 0.10139707 -0.008551709 0.07503662 0.008130623 0.0036316162 0.122099385 -0.026805315 0.02187378 -0.21746138 0.041627984 0.07424739 0.10251767 0.11970956 -0.15726054 -0.099513926 -0.18885958 0.07437751 0.35489386 -0.00048219314 0.035290007 -0.10978388 0.04720671 0.120421745 -0.038942046 0.038941868 0.06974271 0.019247772 0.005334418 0.029533261 -0.03973668 -0.017486703 0.033489082 -0.12517498 0.05580476 0.026837252 -0.10156388 0.044768073 -0.027011978 -0.13431074 0.060084686 0.047905687 -0.02965561 -0.05053278 0.054681532 0.08402698 -0.05022973 -0.06824358 0.12061332 0.018773826 0.102924906 -0.02288241 -0.18626972 0.015459062 -0.13042334 -0.038434602 0.15457447 0.14792712 0.23053172 0.025164582 -0.11430489 -0.124740764 0.034664974 0.13017394 0.018658834 -0.13951887 -0.00647288 -0.07911403 0.14307539 -0.015640944 0.09768099 -0.02792299 0.10423957 -0.23489156 -0.09323579
42 0.1550734 0.088827714 -0.1028201 -0.008715314 -0.07307803 -0.18392508 0.002778616 0.08529735 0.12851822 -0.0069368873 -0.008474776 0.002909435 0.06346698 -0.08652029 0.075898096 -0.042218976 0.028864108 0.093315735 -0.03056914 0.07186693 -0.058655057 -0.034458768 -0.10681288 0.006366751 0.020129504 0.025251899 -0.04029184 -0.019809034 -0.027795553 -0.026433049 0.10452265 0.011378665 0.15165347 -0.018981336 0.08460207 -0.010691588 -0.042017087 -0.00041812813 0.086134985 -0.06402758 0.020384913 0.08672299 0.18763612 0.031737607 0.045485392 0.08147016 -0.14474125 -0.07748682 0.14849624 0.03793556 -0.053814758 0.20265004 -0.20142987 -0.109459616 0.081140175 -0.009740414 0.07446531 -0.039320942 0.008579781 0.08830035 -0.054857265 0.011678919 -0.23051456 0.12430895 0.10989787 0.112636104 0.09762306 -0.15426444 -0.07595344 -0.15743335 0.046668492 0.25249928 0.17757244 0.04687127 -0.08479095 0.056518327 0.20285176 -0.03877704 -0.023145365 -0.011180067 -0.04427633 0.027251797 0.01886447 -0.0057574124 -0.07238727 0.0337542 -0.04486897 0.08072106 0.08812167 -0.07581195 0.036529105 -0.0321668 -0.09365792 0.10460448 0.039709095 -0.16596515 -0.058528494 0.016273642 0.15348329 -0.15536726 -0.12882315 0.13216402 -0.013372134 0.116608076 -0.054584663 -0.069500305 0.04812592 -0.09815916 -0.038508702 0.058146134 0.16108899 0.14000852 0.00040549596 -0.09497069 -0.0955027 0.05711947 0.17471227 -0.018357756 -0.16582122 0.0844502 -0.0044674044 0.12498392 0.057057414 0.0462352 0.030161632 0.06092267 -0.36635023 -0.10053756
348 0.17935403 0.03538874 -0.08059995 0.0132483095 -0.090137675 -0.17616065 0.059571806 0.1255092 0.1605598 -0.021946684 0.03426971 0.03243704 0.0035098575 -0.03292155 0.07505818 -0.087432645 -0.12342105 0.05506306 -0.020278338 0.03075514 -0.17241961 -0.03740743 -0.15392527 -0.07032033 -0.061273936 0.032210473 0.021237979 -0.012900846 -0.10133496 -0.12593518 0.10520129 -0.08581985 0.090431005 -0.01334239 0.12620683 -0.026053814 -0.040267594 -0.04163769 0.16833183 -0.032446437 -0.049169827 0.13462876 0.16992554 -0.03247897 0.026906274 0.04228788 -0.19646323 -0.1568181 0.17139217 0.0055003646 -0.03870225 0.21261153 -0.074682176 -0.013127333 0.060814075 -0.029680569 0.03700325 -0.0015964492 0.01704527 0.11565393 -0.03441125 -0.00051905995 -0.20179841 0.043244213 0.100226045 0.085858025 0.14688684 -0.16230556 -0.09747534 -0.15307267 0.074304886 0.3293002 -0.012137608 0.03934402 -0.09329709 0.0104731405 0.06498889 -0.030121865 0.034362383 0.07807977 0.035563976 0.025453674 -0.0095374035 -0.042789064 -0.016885854 0.043067005 -0.14443868 0.073079176 0.0196972 -0.09848097 0.05055044 -0.046330247 -0.13376087 0.03385939 0.08050522 -0.021900656 0.0035480321 0.07660913 0.075551026 -0.007656857 -0.09505345 0.106669985 0.0054180073 0.106451966 -0.019601792 -0.16305123 -0.0058450443 -0.16513494 -0.08604211 0.13203073 0.11522523 0.2423103 0.036326293 -0.097692065 -0.11778092 0.020255195 0.13716999 0.028024333 -0.124514066 -0.0118252365 -0.06734476 0.14593442 -0.005226747 0.06738436 0.00720903 0.06775886 -0.21932685 -0.06451575
288 0.16157803 0.12951887 -0.123213924 -0.011752366 -0.082737975 -0.13715772 -0.014026648 0.07638078 0.1491066 -0.07808614 0.03019933 -0.0042802203 0.10278186 -0.12658525 0.08887952 -0.043866403 0.09201615 0.11048781 -0.0347899 0.07775202 -0.05657748 -0.047442738 -0.12189884 -0.018355181 0.0151625415 0.07695129 -0.058957845 0.0051471856 -0.019762462 -0.026392156 0.11786386 0.08544922 0.17655069 -0.021889469 0.1178757 -0.02356808 -0.054856576 0.02218569 0.14862575 -0.08442225 0.05457113 0.11205003 0.2327519 -0.027794719 0.015504235 0.046563197 -0.120764054 -0.092057414 0.20189984 0.007366562 -0.05890952 0.17992796 -0.2122874 -0.12066078 0.04264883 0.009079374 0.10667958 -0.011297226 0.0041065933 0.09188343 -0.062996864 -0.026931891 -0.24288355 0.12745164 0.17132288 0.1156356 0.10737305 -0.19618267 -0.07984625 -0.12246363 0.024771366 0.2560395 0.22628638 0.03511094 -0.079576224 0.021631988 0.2106798 -0.057186417 -0.060909383 -0.010459357 -0.10383471 0.04261802 -0.0031950218 0.02107912 -0.07501314 0.0360457 -0.0037649595 0.12956059 0.024465814 -0.1258203 0.0961442 -0.073931456 -0.021258608 0.11605818 0.062149145 -0.21438484 -0.03134351 -0.04575602 0.16558234 -0.096094705 -0.10905364 0.06379885 -0.015987422 0.07599638 -0.032203287 -0.053793762 0.021628328 -0.08600319 -0.03212356 -0.035962027 0.06755712 0.11450433 0.031060364 0.0037284628 -0.090116605 0.08201072 0.0890761 -0.06004613 -0.14804032 0.12065439 0.05610318 0.09414534 0.0458731 0.04512214 0.04208759 0.0716628 -0.29980552 -0.15798655
297 0.17230248 0.03941974 -0.06705679 0.0006690046 -0.058299657 -0.24108046 0.014942367 0.09709864 0.13483316 0.050904132 -0.03499988 -0.007764831 0.027533 -0.043873787 0.08661055 -0.041280188 -0.08394099 0.074587606 -0.052255698 0.058701735 -0.07754096 -0.014181577 -0.14517954 0.027037889 0.029428395 -0.011905703 -0.04808642 -0.032950055 -0.03833266 -0.03555057 0.09314375 -0.03789026 0.13439584 -0.017259456 0.057545844 -0.021231899 -0.030826615 -0.043150254 0.051652376 -0.053933322 -0.0011586891 0.04420954 0.15323582 0.06345001 0.062452067 0.0956621 -0.19206195 -0.0815346 0.10401234 0.025389789 -0.0466661 0.22108816 -0.17462274 -0.05962782 0.10515276 0.0045194733 0.07593052 -0.029406302 0.010061419 0.072098345 -0.016216861 0.050680954 -0.22598688 0.120997414 0.06740537 0.10397273 0.07109728 -0.1428397 -0.054132763 -0.20022106 0.08218485 0.25408038 0.147601 0.06728904 -0.11047685 0.06885894 0.17300697 -0.052561373 0.008422404 -0.006810762 0.01936455 -0.009825468 0.008476632 -0.022312187 -0.04478702 0.05221423 -0.078371786 0.056471575 0.10722739 -0.04488279 0.017068654 -0.0023119403 -0.12774672 0.12343576 0.009722957 -0.077896334 -0.071747385 0.08192077 0.115475535 -0.16904634 -0.10128067 0.15469897 -0.001029792 0.12815744 -0.04638382 -0.10723588 0.08997848 -0.108156815 -0.0074033774 0.12634651 0.2180022 0.14381574 0.001163808 -0.1735307 -0.081460774 0.01787754 0.21743959 0.0049737906 -0.17883979 0.04288531 -0.052270077 0.140456 0.057416353 0.060930118 -0.0025712263 0.08461348 -0.3753745 -0.054104906
92 0.18395895 0.03958291 -0.08288805 0.016425755 -0.09338814 -0.16812672 0.021692166 0.120499656 0.1592635 -0.03148424 0.0044022277 0.02280813 0.025646776 -0.06488847 0.074792 -0.06250139 -0.054559983 0.06998256 -0.021460876 0.041240145 -0.118073225 -0.014152427 -0.15523067 -0.0324947 -0.053369466 0.024569726 -0.012319855 0.0073104384 -0.06408589 -0.07890045 0.11324026 -0.007506075 0.12186336 -0.021957539 0.115115136 -0.019421065 -0.062139153 -0.018608019 0.15305915 -0.04937043 -0.01496981 0.116114855 0.16763403 -0.027849946 0.028748376 0.053362835 -0.17301683 -0.1114136 0.1662965 -0.010644868 -0.054073013 0.20508231 -0.10431083 -0.070075996 0.073772795 0.0018417365 0.06881085 -0.012577376 0.0058960766 0.09736023 -0.037930872 -0.029678397 -0.18853684 0.08325114 0.1294471 0.073727444 0.17021444 -0.17493017 -0.08860082 -0.13094659 0.079779066 0.30108634 0.08450156 0.006627902 -0.06804275 0.01629275 0.11035215 -0.038431164 0.008464478 0.028925383 -0.006811736 0.07412042 0.00421628 -0.01753242 -0.039364222 0.041881725 -0.10816044 0.06476304 0.053163107 -0.1238751 0.045766324 -0.04534691 -0.096873164 0.087651476 0.05662256 -0.077599645 0.0020745916 0.055745274 0.116508186 -0.037060473 -0.11157931 0.10208948 0.020885233 0.13986935 -0.05617829 -0.10927032 -0.015176902 -0.12870616 -0.0751369 0.07523611 0.11032851 0.19197296 0.04777687 -0.06950155 -0.12637645 0.048008505 0.16005355 0.015740259 -0.091230325 0.02633467 -0.04126724 0.10081669 0.021757152 0.071737975 0.043735836 0.045734275 -0.28227708 -0.081843786
128 0.21501666 0.011015558 -0.051296275 0.042395767 -0.05927691 -0.19696254 0.0647185 0.117713 0.14884907 0.0030158518 0.016842647 0.00201664 -0.011702999 0.007435211 0.06763013 -0.040996294 -0.19116198 0.078572676 -0.034779012 0.025834927 -0.17830545 -0.010680378 -0.17158562 -0.0676908 -0.019429494 0.028986195 -0.00036524574 -0.023105372 -0.11266441 -0.090333246 0.07708935 -0.09004873 0.09349179 -0.025032857 0.13750078 -0.05736807 -0.051428393 -0.048781257 0.11344619 -0.06585285 -0.04603188 0.096133254 0.17109723 -0.034007624 0.020421542 0.019081114 -0.23080578 -0.13559842 0.15039425 -0.016164958 -0.04780509 0.21407817 -0.083392695 -0.004362076 0.060150046 0.010492386 0.063364774 0.023973914 0.024290344 0.09788804 -0.026103029 0.031682644 -0.21876547 0.06341333 0.09031565 0.08823654 0.11732283 -0.14625597 -0.05879116 -0.20000255 0.11030067 0.30608577 0.022054592 0.048139818 -0.11644211 -0.01819218 0.07399181 -0.042115603 0.024172667 0.044845514 0.07531973 -0.010163424 -0.068965934 -0.025560973 -0.022029592 0.04879573 -0.14517203 0.060126595 0.038413603 -0.0798282 0.019710785 -0.033402637 -0.10658678 0.053537007 0.0737762 0.009467162 -0.00035636488 0.1497894 0.06690662 -0.018442037 -0.10059904 0.10618898 0.02805565 0.17265588 -0.01449147 -0.18695748 0.048867397 -0.1502538 -0.054380473 0.17521638 0.17869264 0.23541369 0.04433297 -0.16538607 -0.12469894 -0.0034294035 0.20429708 0.02986893 -0.1739495 -0.03841965 -0.070393704 0.18466689 0.031228147 0.07907387 0.0013407096 0.08034862 -0.27845323 -0.027339721
